filename,0,1,2,3,4,5,6,7,8,9,10,11,12,13,14,15,16,17,18,19,20,21,22,23,24,25,26,27,28,29,30,31,32,33,34,35,36,37,38,39,40,41,42,43,44,45,46,47,48,49,50,51,52,53,54,55,56,57,58,59,60,61,62,63,64,65,66,67,68,69,70,71,72,73,74,75,76,77,78,79,80,81,82,83,84,85,86,87,88,89,90,91,92,93,94,95,96,97,98,99,100,101,102,103,104,105,106,107,108,109,110,111,112,113,114,115,116,117,118,119,120,121,122,123,124,125,126,127,128,129,130,131,132,133,134,135,136,137,138,139,140,141,142,143,144,145,146,147,148,149,150,151,152,153,154,155,156,157,158,159,160,161,162,163,164,165,166,167,168,169,170,171,172,173,174,175,176,177,178,179,180,181,182,183,184,185,186,187,188,189,190,191,192,193,194,195,196,197,198,199,200,201,202,203,204,205,206,207,208,209,210,211,212,213,214,215,216,217,218,219,220,221,222,223,224,225,226,227,228,229,230,231,232,233,234,235,236,237,238,239,240,241,242,243,244,245,246,247,248,249,250,251,252,253,254,255,256,257,258,259,260,261,262,263,264,265,266,267,268,269,270,271,272,273,274,275,276,277,278,279,280,281,282,283,284,285,286,287,288,289,290,291,292,293,294,295,296,297,298,299,300,301,302,303,304,305,306,307,308,309,310,311,312,313,314,315,316,317,318,319,320,321,322,323,324,325,326,327,328,329,330,331,332,333,334,335,336,337,338,339,340,341,342,343,344,345,346,347,348,349,350,351,352,353,354,355,356,357,358,359,360,361,362,363,364,365,366,367,368,369,370,371,372,373,374,375,376,377,378,379,380,381,382,383,384,385,386,387,388,389,390,391,392,393,394,395,396,397,398,399,400,401,402,403,404,405,406,407,408,409,410,411,412,413,414,415,416,417,418,419,420,421,422,423,424,425,426,427,428,429,430,431,432,433,434,435,436,437,438,439,440,441,442,443,444,445,446,447,448,449,450,451,452,453,454,455,456,457,458,459,460,461,462,463,464,465,466,467,468,469,470,471,472,473,474,475,476,477,478,479,480,481,482,483,484,485,486,487,488,489,490,491,492,493,494,495,496,497,498,499,500,501,502,503,504,505,506,507,508,509,510,511,512,513,514,515,516,517,518,519,520,521,522,523,524,525,526,527,528,529,530,531,532,533,534,535,536,537,538,539,540,541,542,543,544,545,546,547,548,549,550,551,552,553,554,555,556,557,558,559,560,561,562,563,564,565,566,567,568,569,570,571,572,573,574,575,576,577,578,579,580,581,582,583,584,585,586,587,588,589,590,591,592,593,594,595,596,597,598,599,600,601,602,603,604,605,606,607,608,609,610,611,612,613,614,615,616,617,618,619,620,621,622,623,624,625,626,627,628,629,630,631,632,633,634,635,636,637,638,639,640,641,642,643,644,645,646,647,648,649,650,651,652,653,654,655,656,657,658,659,660,661,662,663,664,665,666,667,668,669,670,671,672,673,674,675,676,677,678,679,680,681,682,683,684,685,686,687,688,689,690,691,692,693,694,695,696,697,698,699,700,701,702,703,704,705,706,707,708,709,710,711,712,713,714,715,716,717,718,719,720,721,722,723,724,725,726,727,728,729,730,731,732,733,734,735,736,737,738,739,740,741,742,743,744,745,746,747,748,749,750,751,752,753,754,755,756,757,758,759,760,761,762,763,764,765,766,767
belly_pain/549a46d8-9c84-430e-ade8-97eae2bef787-1430130772174-1.7-m-48-bp.wav,0.022711677,-0.0728037,0.3693865,-0.0318953,-0.07010888,-0.21585618,0.20372277,-0.142817,-0.2531856,-0.08741297,0.29819325,0.13227274,-0.19751465,0.24172053,-0.09971677,-0.07697352,0.26311436,-0.1509747,-0.11457711,-0.2513553,-0.34959078,-0.20309934,0.19641484,0.42483726,0.18537378,-0.12578048,-0.12022283,-0.06492115,-0.07361721,-0.11491553,-0.19899836,0.037285436,-0.19254567,0.078827545,0.30440107,0.119824044,-0.3183401,-0.0040270234,-0.084769554,-0.33393338,-0.09539983,-0.023438925,-0.3583745,-0.13672146,-0.2971452,-0.020869715,0.04444924,0.43606102,0.2555757,-0.1995031,0.03843644,-0.10495338,0.049267795,-0.075180694,0.22163956,0.21397759,0.2741745,-0.32888347,0.15391964,-0.19242625,0.08378765,0.055934772,-0.06614896,0.043335043,-0.48975092,0.263192,-0.15739375,0.12738827,0.10128899,0.024825534,0.21157795,0.16554569,0.1671611,0.22166951,0.16575558,0.27022278,0.17755154,-0.071163416,-0.10854837,-0.050224494,-0.1774801,0.30464825,0.1233452,-0.15448475,-0.12254446,0.32165444,0.2254308,-0.0814976,-0.14263661,-0.00021560848,-0.66458505,-0.085585274,-0.016844172,-0.21711472,-0.21017648,0.054010235,-0.4852361,0.084039494,-0.007931611,0.429754,-0.36570156,-0.11425341,-0.06864428,0.16908479,-0.037657432,-0.4201366,0.1726029,-0.027247997,-0.033053827,-0.095803805,-0.19587727,0.09269977,0.17859918,-0.024154102,0.29586273,-0.18363848,-0.095840685,0.040589377,0.0039677974,-0.16928664,-0.26126513,-0.039613247,0.42876652,-0.22199012,-0.23685554,0.30590338,-0.041318696,0.10377408,0.10691322,0.017281475,-0.024579117,-0.022806216,-0.20467508,0.11531474,-0.24320486,0.2861655,-0.108675316,0.022135993,0.13294375,0.09131584,-0.18674047,0.109931365,-0.072738044,-0.23847055,-0.05587672,-0.15064389,-0.82173014,-0.33467534,-0.37892288,0.30157354,0.04806827,0.2852906,0.14700806,0.28589287,0.099089384,-0.16089775,-0.058203503,-0.34904274,-0.066812396,-0.05372464,-0.038785897,0.016072882,0.11302346,-0.080794446,0.08701854,-0.026491294,0.23537862,0.22230458,-0.04929324,-0.18993159,-0.13365461,-0.2580187,0.2031039,-0.023260944,-0.15889017,0.68339956,0.07148794,0.10724876,0.377071,-0.058080457,-0.34988198,0.12521437,-0.17073438,-0.0058755456,-0.29423252,0.04791175,0.18786724,-0.08628146,0.20029727,0.39102274,-0.057072956,-0.016782612,-0.012622477,0.20884098,0.09019822,0.17820191,0.31446812,0.011990548,-0.1830161,-0.06258814,0.028151093,-0.17426048,-0.3115935,0.054772504,0.012909387,-0.19483669,0.05563375,-0.055367548,-0.22364068,-0.03427728,0.31435665,-0.12229026,0.063015416,-0.07724758,-0.0932451,-0.02716262,0.029631283,0.09008142,0.15166269,-0.1112484,0.02274361,-0.20378803,0.029035976,0.16735017,-0.06348151,0.39116088,0.116609454,0.069265135,0.13024509,0.09042122,0.08518171,0.03331247,-0.0788963,-0.18055089,0.28012526,0.11714926,-0.02612707,0.15465307,0.069330886,-0.2158756,-0.059911627,0.7913341,0.33475965,-0.043818757,-0.06130515,0.028952459,0.0069289864,0.027748626,0.20733099,-0.44573966,0.10794412,-0.07933607,0.05444655,0.28893036,0.05664928,0.051650967,0.040351234,-0.113532975,-0.0033979318,-0.34089985,-0.17819247,-0.5065777,0.025241503,0.06486784,-1.2175771,0.12751597,-0.023743993,-0.092033386,0.6242984,-0.061036382,0.1240538,0.07478056,-0.09842229,-0.065862335,-0.085945964,0.3349304,-0.10060579,-0.036481988,0.20757805,0.367079,0.031397946,0.24825901,-0.28500038,0.11288571,-0.0026663626,-0.0855601,0.7284474,0.074337505,0.21312627,-0.082982555,-0.17928532,0.0048935516,-0.08245104,0.10282072,-0.52309287,-0.2008246,0.07516242,0.008628927,0.17272894,-0.09017609,-0.013793337,-0.90522176,-0.23505488,0.032925475,0.14117756,-0.13148937,0.039318144,0.11935659,-0.18089154,-0.15356058,0.30791575,0.4250573,-0.37973443,0.24376127,-0.15826316,0.1109456,0.008762055,0.0056022094,-0.1745006,-0.03903447,0.21637613,-0.058963977,0.16324891,0.2960058,0.35832724,-0.32534972,0.2659443,-0.36210817,0.01561122,-0.010402913,-0.1246755,0.60975605,-0.03502191,-0.121557936,0.15291063,-0.15339033,0.14102957,-0.030860793,-0.039845902,0.010426967,0.1766505,0.4898869,-0.09131663,-0.044546355,-0.4525515,-0.052512165,0.08849612,-0.2109309,0.5931468,0.046156336,0.1738206,-0.13037276,-0.5998016,-0.045576084,0.10985958,0.071694404,-0.016041378,0.079797685,0.031429656,0.06696294,0.13427149,0.17401563,0.19375227,-0.08824951,-0.06481074,-1.225304,-0.06330233,-0.33562583,-0.0023966033,0.08745462,0.16464311,-0.24048218,-0.11530524,0.019090544,-0.09642562,0.8242773,0.009637565,-0.059536316,0.07221538,-0.14028841,-0.054815188,-0.12683329,-0.16908073,0.26042214,-0.5469776,-0.24016525,-0.3959489,0.16667971,0.15436919,0.21765311,0.108287066,0.39168963,-0.037632328,-0.25137907,-0.12866585,0.9414592,-0.18441574,0.23902766,0.10469758,-0.10894836,-0.043395977,0.051738895,0.20885974,-0.24929415,-0.12140977,-0.22234873,0.075054854,0.23383884,0.16077189,-0.3041338,-0.20774919,0.09253737,0.21545786,-0.053789377,-0.085257456,-0.09233591,0.0372894,-0.33767056,0.2229913,0.14965628,0.10894461,-0.21049914,-0.23952629,0.07153084,-0.1373728,0.038142696,0.14163724,0.17233492,0.21241519,0.534711,-0.09972837,-0.064814255,0.9301822,0.15294157,0.05124787,-0.029940331,0.1496452,0.20288755,0.2652537,-0.32664973,0.08470281,0.27046892,0.09042024,-0.06166316,0.03890714,-0.21757387,0.12386902,0.1925333,-0.085860714,-0.05962973,0.096072026,0.42101932,-0.18851978,-0.045784514,-0.09114926,0.10523799,0.098982714,0.08851747,-0.17653166,0.09594359,-0.5037724,0.066297695,-0.05324271,0.26922706,0.108300045,0.48032683,0.056202862,0.048386797,-0.12576258,-0.006771309,0.0027257588,-0.11244427,0.07411229,-0.015359258,-0.25773612,0.17659545,-0.041517366,0.27678493,-0.23125926,-0.018646237,-0.92835677,-0.08513494,0.17207627,-0.20871066,0.007847139,0.45323038,0.14267927,-0.31491342,0.16500135,0.05747786,-0.07284356,-0.071351126,0.093763284,-0.13112673,-0.32081595,0.32198727,-0.09564159,-0.093128525,0.41294473,-0.05593948,-0.13964567,0.10676646,0.1406169,0.10806626,0.077064484,0.15538964,0.3423733,-0.10095894,-0.005151622,-0.08165114,-0.04205043,-0.061012864,0.22939688,-0.12989649,0.006063376,-0.01093687,0.45266572,-0.13856092,0.011308766,-0.1666173,0.090316005,0.01816493,0.12952258,0.15075058,-0.27698997,-0.03023459,0.28379497,0.075959995,-0.44912234,0.13645203,0.109588556,-0.23036098,0.08895021,0.11745783,0.2903874,-0.07455712,0.014704427,0.1569133,0.24844362,0.13193393,-0.48936874,0.0008747705,0.18640143,-0.368454,0.41986766,-0.29727238,0.24684758,0.95233554,0.17952088,-0.054642197,0.49512067,-0.23494087,0.10377983,-0.0104966415,0.093704924,0.26036602,-0.077594444,-0.22667581,0.17691036,0.05417447,-0.074309506,-0.14108582,0.07262109,-0.09087164,-0.061125815,0.52797973,0.009278644,0.21569757,0.09017452,0.016335934,0.19891573,-0.12031427,-0.024075361,0.0023676534,0.5704739,0.01931399,0.07073235,0.21852973,0.14191127,0.16357432,0.04698509,-1.5826118,0.020749979,0.05346465,0.10912881,-0.14895117,0.14150386,0.2216582,0.15043983,0.09525575,0.11046567,0.028219884,0.1918554,0.30113345,-0.21181601,0.059338544,0.06011414,-0.04760997,0.16630687,-0.053082366,0.03405572,-0.1105891,0.037548345,0.014431746,-0.09181414,0.10715117,-0.0048389416,0.4766744,-0.07923573,-0.39321226,-0.11269897,-0.051158722,0.116848044,0.012916136,0.5782288,-0.7338198,-0.13154688,0.029829055,0.12868345,-0.946654,-0.19415268,-0.12442694,-0.007879357,0.035136055,-0.098095074,-0.07017334,-0.08294545,0.020817302,0.046654537,-0.023830974,-0.045211643,-0.23726475,-0.21825422,0.33014658,-0.22024712,-0.006132036,-0.17189856,-0.3003658,-0.39653394,-0.004164989,-0.19011624,-0.3312876,0.2568122,-0.06897455,-0.17538483,0.024563778,0.09960771,-0.23098002,0.07563243,-0.2641868,-0.060192812,0.11016834,-0.05959815,-0.24030963,-0.027169576,-0.2562827,0.031771388,-0.24506482,-1.1164837,0.14630827,0.26360327,0.09388401,-0.09240385,-0.13329393,0.14626698,0.083957374,0.25673527,-0.043235242,-0.4406329,-0.22212811,-0.06763508,-0.17339554,-0.36168718,-0.34694582,-0.06953385,-0.023443159,0.018384835,0.24325576,0.10703957,0.1906617,0.20489578,0.47829688,-0.15742609,0.49892902,-0.07775856,-0.4224083,-0.19768119,0.14181648,0.057159837,0.13015567,0.10829596,-0.20156626,-0.033579484,-0.21934074,-0.13541752,0.21200395,0.13240029,-0.14525491,-0.21242219,0.06889218,-0.45588046,0.05060262,0.5611651,-0.19130708,0.06385171,0.11561863,0.10427264,0.06151346,-0.059257824,0.28874922,-0.0533292,0.15485525,0.15692581,-0.100442655,-0.049225226,-0.12928386,0.06323982,0.0396936,0.16259834,-0.21082611,-0.23878898,-0.030358939,0.065552145,-0.040439874,0.16489299,-0.15869543,0.16629118,-0.03152894,-0.03590978,-0.07932666,0.0038785415,-0.28112257,-0.29003885,0.08061213,-0.08700397,0.23189795,0.0767419,-0.09440781,-0.074408755,0.18491867,0.31109312,-0.040924843,-0.17260739,-0.086587116,0.2800023,-0.030673562,-0.14644945,-0.29766053,-0.372338,-0.04017014,-0.21343967,0.2261086,0.0792428,0.15984027,0.289296,-0.20829248,0.06562043,-0.014038304,-0.07081024,0.16612181,-0.033243217,-0.10273296,-0.17339228,-0.0981657,-0.09241529,0.1314674,0.085168965,0.2327565
belly_pain/643D64AD-B711-469A-AF69-55C0D5D3E30F-1430138524-1.0-m-72-bp.wav,0.13440068,-0.21545921,0.2396829,0.19614059,-0.2391995,-0.38799655,0.41292238,-0.22567262,-0.26903567,0.02185527,0.5194009,-0.30842438,-0.471429,0.21502535,-0.004005362,-0.19756682,-0.039728507,0.058673706,0.098072454,0.15532832,-0.28226283,-0.12654108,-0.44045973,0.1750316,0.32653075,0.03825588,-0.3276738,0.013634357,-0.40545788,0.04370768,-0.35579717,-0.025321873,-0.09811977,0.063657425,0.32868642,0.24548547,-0.09220338,0.057561047,0.01623665,-0.3893031,-0.20422803,0.17132992,-0.23949559,0.11107733,-0.18932746,-0.13613501,0.018695181,0.08809355,0.1839352,-0.21085699,-0.013078254,0.038410068,-0.10455942,0.08777077,0.4089609,-0.1068176,0.07892123,-0.22605205,0.24715288,-0.020018572,-0.2104024,0.20483685,0.07594146,0.18551826,-0.25536883,0.09339403,-0.07256779,-0.057874165,-0.07388704,0.16403644,0.31325686,0.20761524,0.18937944,0.40852508,0.16458094,0.16100718,0.25854328,-0.22536117,-0.13463344,0.10037835,-0.06426624,0.7421226,0.13174933,-0.3277473,-0.08272833,0.25738108,0.23396303,-0.19996485,-0.13379176,0.07295425,-0.59656364,-0.27468807,0.17487209,-0.16328663,-0.3274497,0.0831706,-0.38427994,0.13827868,0.29026416,0.325076,-0.15926637,-0.4591499,-0.19784302,0.11668443,-0.017607523,-0.1704762,0.09364829,0.05045857,-0.093133144,-0.124460496,-0.27906695,0.041933168,0.017013455,-0.07648324,0.24827501,0.09478293,-0.024673117,-0.07594308,0.06239005,-0.044608615,-0.16817191,0.15094957,0.10828061,-0.20163475,-0.099860325,0.4340286,-0.17936036,0.111992836,0.030520037,0.25581685,0.22025327,-0.3589606,-0.08582009,0.14473759,-0.11101949,0.104114905,-0.04309079,0.085680455,0.20296943,-0.10106865,-0.08481911,0.26955563,-0.24535501,0.043227334,0.2697867,-0.0779893,-0.82244325,-0.24720171,0.17284013,-0.13664605,0.029348705,0.22542185,0.36872533,1.6753795,-0.03614816,-0.11464473,0.01414775,-0.3599254,-0.23800027,-0.06366026,0.060890384,0.07601296,-0.09782354,0.0851369,0.18947685,-0.015736906,0.54462737,-0.077051684,-0.066160426,-0.4165289,-0.11458767,-0.33656675,0.31564528,0.18034682,-0.087634794,0.3335196,-0.30821782,0.074645296,0.11155219,-0.12533848,-0.1723041,0.2810592,-0.07128515,0.1450646,-0.31220776,0.09440776,-0.0584186,0.2326407,0.018524123,0.25728643,-0.19891319,-0.002970205,0.04737167,0.13053319,-0.037567947,0.28640136,0.22926578,-0.025218893,-0.06286817,0.017471379,-0.007094263,-0.021162365,-0.41302115,0.86613667,0.040631667,-0.23362431,0.18126002,0.06763117,-0.21154752,0.06937521,0.0674608,-0.53653145,0.11442739,0.05358189,0.11749437,-0.09261698,-0.05397237,-0.07656837,-0.16121021,0.17345771,0.084962144,-0.12389425,-0.17798108,0.19379178,0.28250977,0.21754614,0.11322992,-0.04503799,-0.21332355,-0.0431632,0.06859865,-0.16388035,-0.014257815,-0.097979754,0.18868452,0.04540633,0.022960229,-0.13242088,0.0670175,-0.019447267,0.09105492,1.2823824,0.2785184,0.097583205,0.07053383,-0.030371865,-0.005847924,0.0785499,0.12287468,0.13281785,0.05065295,0.07307905,0.06937481,0.21073894,-0.18054323,-0.055412795,-0.094107874,-0.2894015,0.123477235,-0.7471366,-0.29258135,-0.14845167,0.17649758,-0.10375471,-0.9348622,0.019961124,0.12360675,-0.016013902,0.3587428,-0.19348897,-0.04178247,0.06869252,-0.1615056,0.036407467,-0.14879216,0.06952014,-0.10362938,0.17556216,0.055414584,0.20996323,0.07210741,0.24084738,-0.0811241,0.15590364,-0.18760806,-0.11886168,0.56053716,0.0156646,0.05455932,-0.02283018,-0.4838126,0.03981648,-0.04281506,0.33703056,-0.36566928,0.017392026,0.07880056,-0.24149752,-0.034419145,-0.04138345,-0.23544675,-1.1741334,-0.098683804,0.5153547,0.31223145,-0.04334512,0.13814516,0.09769285,-0.16974148,-0.29364488,0.102033176,0.26927823,-0.15479611,0.07602698,-0.28967828,0.349156,0.024586912,-0.17371969,0.21743377,0.06883341,-0.03201974,-0.0865726,-0.05669375,0.29235998,0.34588078,-0.16511568,0.40833902,-0.17689587,-0.0050157025,-0.17884731,-0.03908257,0.049557477,-0.094716005,-0.09751707,0.24072045,-0.3157501,-0.022059511,0.025333388,0.18790394,0.013652608,0.07217369,0.4967243,0.51794726,0.074416205,-0.44877073,-0.19700928,-0.29873252,-0.12096355,0.24710377,0.20062344,-0.09769818,-0.009238543,0.44183058,-0.08754674,0.09635501,0.38851526,-0.10394004,0.0035480661,-0.00491828,0.18945758,-0.04817603,0.46414316,0.15356049,0.06390212,-0.160444,-0.8789682,-0.12876926,-0.30761215,0.2727423,-0.015880419,-0.0046646474,-0.13449931,0.04498108,-0.13499144,-0.20620708,-0.28267542,-0.096667744,-0.02481005,-0.01231929,-0.17286494,-0.2674127,-0.0802269,0.03144074,0.0507641,0.33926833,-0.11026445,-0.29906705,0.27979586,-0.07231504,-0.15375078,-0.101271406,0.3030405,0.12782295,-0.078821786,-0.43804124,0.594876,0.13060495,0.14756908,0.10162747,0.05879188,0.09297485,0.26297632,0.07569796,-0.042232603,-0.08117194,-0.037621062,0.23708317,0.009850567,0.25237998,-0.38664433,0.21894948,-0.08637562,-0.028050909,0.114033446,0.23661962,-0.21175173,0.19215083,-0.4191901,0.0021782427,-0.13174051,0.18081212,-0.2824429,-0.2593239,0.3029817,-0.03998369,0.030232135,0.24366876,0.028739858,0.081090204,0.057389654,-0.09889477,-0.16491494,0.56754553,-0.020668508,0.07513563,0.07490401,0.10128723,0.1450545,-0.13787255,-0.4473891,-0.13027039,-0.08675221,0.048474163,-0.11117526,0.15497763,0.025106078,0.3728711,0.11306615,0.08403754,-0.003765847,0.10077733,0.14409955,-0.5080521,0.115005165,0.04115701,-0.014083954,0.15512142,-0.022876622,0.008113818,0.1462864,-0.4119218,0.13400154,0.017719325,0.4167477,0.35426763,0.12093526,0.19843951,0.2696174,-0.01415624,-0.08999205,-0.11680093,0.2399129,-0.055273317,-0.24437162,0.11385905,0.09184135,0.0003573092,0.47312355,-0.30570248,0.16801432,-0.61415815,0.08350426,-0.3004536,0.10705295,0.013866728,0.538477,0.12939952,-0.22052747,-0.04289158,0.1006975,0.0076027308,-0.30106843,0.13816948,0.047281086,-0.51291865,0.931732,0.091330074,-0.15998189,0.47054204,-0.20555839,0.115663424,0.10426483,0.14456834,0.04803888,-0.08028097,-0.020587275,0.33992583,0.06823275,-0.07845747,-0.0076017394,-0.1438125,-0.16159402,0.022249855,0.1125526,-0.09418022,0.034677427,0.2707529,0.19029227,0.035268385,0.2857914,0.065347314,0.075679645,0.11704336,-0.08072161,-0.047318827,0.18714343,-0.26000163,0.19773799,-0.52211,-0.015783299,-0.056034613,-0.1399047,0.044375814,0.05622302,0.010742858,-0.022845754,0.09381642,-0.13012719,0.18093204,0.034085702,-0.1933507,0.08063694,0.1592857,-0.5413886,-1.8965774,-0.3400739,-0.12909915,0.79052675,0.2933314,0.1277896,-0.06283514,-0.3445112,-0.029616006,-0.019260352,0.27594587,0.4041575,-0.10584294,-0.23683912,0.20255664,-0.11532436,-0.117579594,-0.048859354,-0.22967169,-0.05642693,0.20171604,-0.066438146,0.26825637,0.36326334,0.03410556,0.08594076,0.21823055,0.04041882,-0.020678874,-0.09730261,0.40362754,-0.10247482,0.46704277,0.078874804,0.27686992,0.17560618,-0.012262048,-1.9837277,-0.15836133,0.06862532,-0.05792411,-0.1405738,0.11677818,0.099104,0.1375023,-0.04470073,-0.41800806,-0.08958259,0.14964157,0.43017647,-0.106328554,-0.23048124,0.17132239,-0.12885395,0.23811835,-0.1775385,0.024917684,0.06069895,-0.045193564,0.28710696,-0.14147092,0.056745294,0.019146578,0.2203223,-0.064296,-0.29163733,-0.038093686,-0.3040539,0.37186635,0.15498585,0.385167,-0.18959017,-0.15616606,-0.07831556,0.1126822,-0.78896135,-0.49665543,-0.14665449,0.1045657,-0.04939674,-0.06903014,-0.1146939,-0.00015416872,0.25765583,0.45128354,-0.18388157,-0.06889944,-0.09683735,-0.4951772,0.3289884,-0.30717736,0.25263864,-0.038085494,-0.10081034,-0.22705789,-0.05740316,-0.21371908,-0.6632028,0.11509105,0.04802862,-0.13717222,0.018347284,0.1178077,-0.3517766,0.20544368,-0.28078204,0.13427176,0.122115135,0.032902516,-0.2841146,0.09807902,-0.027462855,0.09036951,-0.07228756,-0.7668684,0.049685862,0.055545483,-0.0017550972,-0.08252374,-0.20397009,0.36053765,-0.12270257,0.10245589,-0.003950794,-0.17439662,-0.27356666,0.16882166,-0.17244422,-0.104684375,0.11080437,-0.14217678,-0.06745712,-0.30191013,0.071153805,0.06909609,0.087716885,0.078106955,0.40736237,-0.31886223,0.44728556,0.23814927,-0.25873306,-0.39279047,0.33846688,0.73462105,-0.111898474,0.063891254,-0.006045277,-0.011541934,-0.085452184,-0.11653736,0.15116765,-0.09748302,0.043836024,0.0682924,-0.09656757,0.081068456,0.14686708,0.33625573,-0.3237768,0.02942032,-0.03843467,-0.031326402,-0.17483546,0.041543316,0.05280292,-0.015112687,0.049590003,-0.29417932,-0.09672692,-0.03341615,-0.39686516,0.09021717,-0.002290485,0.039081737,-0.15343092,-0.17396326,0.36621645,0.16328087,-0.102833524,-0.079919666,0.22957991,0.16345152,0.012714903,0.11941032,-0.108082235,0.041114688,-0.20925154,0.40380803,0.07607689,-0.4186127,0.12648296,-0.09983736,-0.055599928,0.17542838,-0.0078139,0.27753863,-0.1694768,-0.123505674,-0.14767379,0.10582789,-0.4044037,-0.05445565,-0.08868305,0.17806368,-0.36723748,0.11713793,0.18535891,0.16455935,-0.15709387,0.32460216,-0.15060309,0.32167593,-0.054927617,0.14664854,0.027970959,-0.11487903,-0.32823005,-0.29040614,-0.09548876,-0.023830442,0.18322247,0.18371095,-0.05688155
belly_pain/999bf14b-e417-4b44-b746-9253f81efe38-1430974001343-1.7-m-26-bp.wav,0.0070789685,-0.15436335,0.5743919,0.001003161,-0.07019689,-0.15361138,0.36724588,-0.00920679,0.032600127,-0.21714945,0.33359984,0.073434144,-0.17581196,0.19513325,0.03110163,-0.20099898,0.13359836,-0.3277868,-0.16279697,-0.19657978,-0.37000108,-0.31467694,0.42661884,0.44254702,0.057036277,0.0121140955,-0.23948106,-0.014818047,-0.11027425,-0.0099925725,0.025913246,-0.0044606314,0.092981435,0.14380236,0.30804884,0.05136939,-0.13416488,0.006428219,-0.1209282,-0.37112257,-0.17973378,-0.024822798,-0.3944813,-0.059838224,-0.13009231,-0.0020980723,0.021170098,0.35059747,0.15898313,-0.21654351,0.07009065,-0.11796952,-0.004295121,0.011496109,0.25313744,0.17279696,0.26364008,-0.22778992,0.14373428,-0.027697228,-0.047373258,-0.17320147,0.097474,0.13249144,-0.17771293,0.28665543,-0.1450541,0.17634559,0.11476949,0.024200672,0.037504993,0.2059878,0.09201887,0.21247016,0.12034863,0.41425377,-0.005052717,0.15322909,-0.057216097,0.024795732,-0.01529624,0.38254318,0.082414314,-0.27532932,-0.16563687,-0.10313763,0.17900617,-0.036231704,-0.07353019,-0.024310315,-0.67955387,-0.21320818,0.13492829,-0.15046217,-0.14425401,0.013767683,-0.11527362,0.0340791,0.099762104,0.34158763,-0.5413442,-0.45469669,-0.19370748,0.22285733,-0.076614544,-0.53762925,0.12430352,-0.00017639232,-0.0062952596,0.02493712,-0.15570687,0.0221709,0.16363645,0.011265027,0.30702248,-0.12235585,-0.05042803,0.32305965,-0.12366819,-0.011750507,-0.42514518,-0.03524641,0.2474585,-0.2725489,-0.43074697,0.51482874,-0.064248726,0.11703373,-0.12113189,0.26561815,0.0033612677,-0.14592835,-0.17314012,0.09362166,-0.23147629,0.18485749,-0.060649566,0.17499663,0.27146742,0.02890044,-0.0065918947,0.23808324,-0.068276495,0.18953608,-0.19472137,-0.15565757,-0.8273868,-0.49396816,-0.34501427,0.32031175,-0.007841052,0.27970022,0.08338057,0.83697927,-0.003499181,-0.25465804,0.016051019,-0.402758,-0.19410247,-0.080250144,0.026292268,-0.06479533,0.11736834,-0.11499252,-0.0061585763,0.0028102444,0.07656429,0.24569434,-0.16836727,-0.37580216,-0.11886813,-0.23933333,0.24106926,-0.106079414,-0.093853466,0.6691156,0.1322831,0.027705325,0.22873211,-0.06463762,-0.28713977,0.11051194,-0.2518759,0.078422084,-0.58921945,-0.046951473,0.079283886,-0.00041511905,0.12129332,0.25228086,-0.030582672,0.07679221,0.046388265,0.14549127,0.009976475,0.26664373,0.023060715,-0.09782881,-0.29826808,-0.09763441,0.12421417,-0.026525833,-0.18069479,0.2379745,0.11761077,-0.2889581,0.11800582,0.052084025,-0.24723367,0.00064485817,0.36338383,-0.08532363,-0.032394484,0.0023156062,-0.032151964,0.04717097,0.07754372,0.095579356,0.11153453,0.014376668,-0.033776853,-0.23135838,-0.023851963,0.2766479,-0.11830503,0.3757178,0.13618605,0.0052730097,0.1154244,-0.023551466,0.11497126,-0.051083837,-0.033760235,-0.05556259,0.27701798,0.15625234,0.012249001,0.101988494,0.022726877,-0.12733005,0.050141048,0.77387094,0.29413474,0.13670078,-0.15176018,0.058253966,-0.029621294,-0.04974457,0.08094304,-0.37086144,0.093320414,-0.08143565,-0.039275657,0.3088302,0.07909345,-0.07345563,0.019699864,-0.19323446,0.0018294703,-0.37253314,-0.10139413,-0.59757936,0.07975066,0.038904484,-1.1098005,0.23109531,0.028987749,-0.08316208,0.2880195,0.017958146,0.08331927,0.06972988,-0.15788236,-0.03430545,-0.19668287,0.2458068,-0.038447835,-0.24636382,0.19954744,0.17404339,-0.20337123,0.23295116,-0.21588787,0.22831558,-0.16150421,-0.14014412,0.78316987,-0.069194384,0.1669548,-0.057559174,-0.19219376,-0.06788274,-0.091176786,0.038668938,-0.499243,-0.019183123,-0.013295603,-0.018496992,0.3153584,-0.10616764,0.05074108,-0.6562052,-0.095219105,0.15240505,0.20202073,-0.03151871,-0.016548844,0.014792958,-0.07076,-0.24667177,0.20678578,0.36658266,-0.20095938,0.16010047,-0.1915316,0.029889043,0.13467266,-0.050903752,-0.03372289,-0.1898622,0.20465642,-0.05953323,0.21758321,0.10256622,0.48665574,-0.21201546,0.1871262,-0.33136263,-0.0010018051,-0.12735759,-0.17327644,0.3335639,-0.017861705,-0.09565948,0.026778203,-0.26270363,0.26863414,-0.013922827,-0.09086038,0.05787803,0.15354405,0.39001158,0.075628646,-0.09250326,-0.51770145,-0.13715413,-0.24173927,-0.2901325,0.6215223,0.117006116,0.051105376,0.016525185,-0.6829114,-0.026070897,0.051692326,0.23360194,-0.10574277,0.035029504,-0.0724797,0.32494256,-0.0035094202,0.015892869,0.18334498,-0.16008498,-0.0822668,-1.1328522,-0.13440701,-0.2784777,0.17321199,0.0720533,0.20183855,-0.18141168,-0.17162193,0.20469147,-0.19285178,0.51325357,-0.15171474,0.024601273,0.035193905,-0.22437291,0.10758706,0.012680548,-0.26490867,0.1606413,-0.47323027,-0.2084223,-0.5734588,0.1497809,0.1080689,0.35374263,-0.06924549,0.18266451,-0.041966066,-0.24982853,-0.15810494,0.7848352,0.008018036,0.0010227163,-0.09179659,0.07155451,-0.005118085,0.21873419,0.0737494,-0.2749371,-0.07883938,-0.14555204,0.0656624,0.23488234,-0.012526674,-0.1370881,-0.30416012,0.02920261,0.3573599,-0.046463095,-0.07185006,-0.043915033,0.016379455,-0.37233555,0.105319776,0.027743492,0.11417561,-0.24775456,-0.17150317,0.15884137,-0.18319696,0.08473426,0.12891357,0.10126847,0.13341354,0.3015711,-0.1420854,0.021584326,1.0591502,0.10631525,0.1111343,-0.039340828,0.20936452,0.06612214,0.16591924,-0.17490488,0.036843512,0.02644641,0.44374686,0.02396563,0.008670122,-0.09647799,0.038796026,0.16366683,-0.01876712,-0.123161204,0.2550521,0.31495395,-0.18106799,0.08430074,0.0048812786,0.12688193,0.39190105,0.14603934,-0.07253906,-0.17183459,-0.3789662,0.015881974,-0.043858115,0.12614733,0.20802553,0.44884488,0.14500614,0.10647705,-0.1552446,-0.005913313,-0.0044405684,-0.19157624,0.06483934,-0.1760539,-0.2028082,0.28285074,-0.03715468,0.24163565,-0.2529005,0.07326379,-0.82888687,-0.009074684,0.037386335,0.04576365,-0.033439375,0.42409423,0.03913752,-0.20159914,0.042184476,0.1515574,-0.07568814,-0.17796658,0.05335916,0.0021031047,-0.11443622,0.24393286,-0.11223788,-0.07668395,0.32782152,-0.15166494,-0.12139634,0.08224034,0.06700916,0.11577277,0.04124657,0.41332498,0.27440375,0.018528312,-0.0404323,-0.04498401,0.027886903,-0.037131045,0.12990266,0.05024229,0.04064866,-0.050026175,0.27049378,-0.16442287,0.14269261,-0.008715453,0.06991065,-0.09879356,0.1204896,0.04458607,-0.14522308,-0.14763515,0.04157618,0.12681688,-0.57784575,0.23891285,0.098533034,-0.2643239,0.044123664,0.22091347,0.21338153,-0.11099057,0.063529626,0.08618106,0.20627393,0.009308293,-0.3958836,-0.006935435,0.23696628,-0.23424071,-0.07772076,-0.26099843,0.37359065,0.95777327,0.39159065,-0.15389553,0.5261162,-0.3004104,0.17257734,0.013753057,0.059215568,-0.03802521,-0.09288568,-0.19167237,0.11808732,-0.06616975,-0.1588392,-0.06788972,0.109027684,-0.15594627,-0.07860097,0.4128062,-0.042736482,0.245618,0.060766798,-0.117815085,0.1794358,-0.13310456,-0.09631117,-0.011392923,0.5273269,-0.19096215,0.012455677,0.14959148,0.12629704,0.030266684,-0.0035914802,-1.7558129,-0.34668288,0.057670012,0.15262936,-0.22788611,0.04757872,0.34681943,0.18510932,0.03945413,0.03135944,0.043458544,0.21716732,0.27877638,-0.2818433,-0.008085229,0.1997449,0.0026437163,0.22005054,0.0062548704,-0.018049156,-0.06492806,0.040898267,0.17064613,-0.09573944,0.025698865,0.018641574,0.47542062,-0.13937393,-0.29219872,-0.06563812,-0.038855154,0.16990198,-0.12945777,0.38683975,-0.67898756,-0.10241207,-0.040485747,0.16694911,-1.0272686,-0.16948533,-0.20797303,-0.1407992,0.06769299,0.0411509,-0.10616852,-0.10675535,0.15319657,0.23497058,-0.057713676,0.033660337,-0.15164971,0.18906738,0.1642372,-0.18610433,-0.07307329,-0.14977205,-0.14462562,-0.44208238,0.1047473,-0.35436755,-0.35654846,0.4407532,0.032928277,-0.14376208,0.08268219,0.18826765,-0.15809385,0.089815274,-0.20654266,-0.019153813,-0.040973984,-0.0862582,-0.22005722,-0.122921266,-0.15655796,0.060570035,-0.08537635,-0.88658214,0.15989645,0.08268543,-0.23714837,-0.18846011,-0.52478695,0.30316782,-0.075699024,0.14031313,-0.045066416,-0.3734616,-0.14978057,-0.052771565,-0.064014055,-0.36745977,-0.14840981,-0.07783515,0.0055621895,-0.063611105,0.20134063,0.14146262,0.15143709,0.11434242,0.524108,-0.2476956,0.19723865,0.09037926,-0.41621402,-0.37973756,0.022427002,1.126156,0.08548966,0.117913224,-0.10792584,0.03565805,-0.16212586,-0.2055403,0.1263042,-0.07575015,0.07847288,-0.33057114,0.14067522,-0.20078155,0.10615065,0.27752462,-0.082770735,0.11952316,0.05886287,0.01504341,0.22244571,-0.10644577,0.19981699,0.09407443,0.10395695,0.096493356,-0.14249453,0.0638559,0.18132849,0.041541565,-0.011519663,0.2598424,-0.26138654,-0.38353032,-0.012157705,0.080603555,0.061503094,0.089561194,-0.18755221,0.14616518,-0.05170642,0.17640068,0.08694463,-0.019863797,-0.081387915,0.027125897,0.16815105,-0.039658874,0.27068835,-0.0876187,-0.036937695,-0.008834506,0.17992042,0.35536295,-0.025581889,-0.19978331,-0.061500244,0.3553507,-0.19344008,-0.04946121,-0.10401723,-0.28716803,-0.17562824,-0.17619112,0.28514293,0.22551931,0.15590324,0.19301079,-0.40884998,0.10934265,0.057073593,-0.40759575,0.15745786,-0.0056991484,-0.27089402,-0.37204045,0.013239453,-0.121324785,0.08988061,0.16239485,0.15670647
belly_pain/643D64AD-B711-469A-AF69-55C0D5D3E30F-1430138545-1.0-m-72-bp.wav,0.012810629,-0.16885914,0.20465761,0.07103574,-0.3135931,-0.2977789,0.522299,-0.22375713,-0.2764253,0.1251493,0.4264491,-0.2841347,-0.3114564,0.21336406,0.074084714,-0.12685783,0.0216597,-0.10656856,0.11503837,-0.13644122,-0.2644906,-0.11112282,-0.40612492,0.13635454,0.20438658,-0.173805,-0.00018000808,0.16399936,-0.58190787,-0.03516181,-0.021562617,0.04283239,0.044929296,0.0481917,0.17044741,0.23097822,-0.17604488,0.031961728,-0.13043989,-0.40718132,-0.17760566,-0.0114629,-0.19208938,0.1193422,-0.013480026,-0.15523696,-0.10575782,-0.12163983,0.17919207,-0.21471082,-0.029958475,0.10896191,-0.023230283,-0.18993416,0.46088693,0.03844967,0.18848816,-0.2728111,0.19050635,-0.042903412,-0.19098517,0.22982593,0.07628899,0.2219983,-0.14023992,0.068550564,-0.040172394,-0.086852446,-0.055899125,0.1649618,0.28121734,0.16877012,0.26605466,0.35735777,0.10371228,0.1538928,0.09093122,-0.16153222,-0.21110694,0.089830376,0.019682527,0.8390774,0.05788743,-0.24556048,-0.14706935,0.2620357,0.081695095,-0.23901264,-0.115763396,0.012055035,-0.4990121,-0.20576724,0.072308265,-0.12511122,-0.44566506,0.07618849,-0.47944185,0.16179553,0.12621461,0.26813233,-0.113317035,-0.5101348,-0.13241582,0.18166412,-0.044860587,-0.45826048,0.035825115,0.06744585,-0.06316692,-0.0949847,-0.25204295,-0.008507571,0.2522292,-0.06886028,0.25368333,0.20255664,-0.07051383,-0.045380097,0.04547734,-0.06593233,-0.31394848,0.32656175,0.22376049,-0.29678908,-0.21536396,0.43121538,-0.10944781,0.038227327,-0.091223925,0.09604086,0.13114963,-0.42431834,-0.23633514,0.21378075,-0.22146027,0.25925398,-0.087903574,0.091707714,0.3418409,0.13754195,-0.04119087,0.25801525,-0.23812158,-0.042518474,0.16375402,-0.042903733,-0.8677128,-0.30257216,-0.061483443,-0.090129286,0.059835516,0.1551055,0.20186092,1.1980826,-0.050722793,-0.13565172,0.0009461749,-0.36237165,-0.18040977,-0.01136059,-0.0015719332,0.0759439,-0.064724125,0.11010812,0.16972755,0.0060150377,0.43969584,-0.19442767,-0.19085954,-0.42893767,-0.11512331,-0.44233206,0.21925537,0.36152014,-0.14517199,0.2777831,-0.100279756,0.01795182,0.25633907,-0.14644092,-0.28353992,0.26789138,-0.14537413,0.16440555,-0.5192209,-0.009720381,0.1111324,0.098348215,0.070108876,0.12254818,-0.35508323,-0.038503796,-0.014783049,0.16720244,0.03438332,0.23429108,0.2924961,-0.20411795,-0.07337815,-0.007530157,0.040858895,-0.054468293,-0.45208788,0.86256605,0.05918943,-0.22725943,0.14298074,0.10239258,-0.15264727,0.02058915,0.13285409,-0.391786,0.09976893,0.18109322,0.14968674,-0.09296004,-0.10282924,0.046646047,-0.04024412,0.030648805,0.19790374,-0.18134637,-0.10828898,0.104429096,0.14939481,0.4550036,0.055521592,0.061603047,-0.09697732,-0.14020172,-0.19670829,-0.17089413,-0.05827996,-0.08901452,0.14964403,0.08238458,0.004708301,-0.15280403,0.11101145,0.13002697,0.18064962,1.4372333,0.18361163,-0.017263042,-0.05289354,0.04597817,0.07230674,-0.045276605,0.11597668,-0.09967938,-0.014215635,0.0139906835,0.13431665,0.2159251,-0.2097095,-0.15581523,0.09312263,-0.24125986,0.096030705,-0.73624045,-0.30454084,-0.26051474,0.0513946,0.005048988,-1.0369861,0.06477198,0.040261462,0.090049915,0.48475748,-0.2433409,0.0015909672,0.065204464,-0.211844,0.017069569,-0.1647021,0.07753287,-0.08849202,0.0585504,0.12041673,0.38391292,0.1244648,0.20493786,-0.2533239,0.21378204,-0.14596404,-0.16668987,0.6211181,0.11291747,0.11476239,-0.07274797,-0.45954886,0.29035386,-0.05894553,0.21422052,-0.4165173,0.060784344,0.042992666,-0.16702512,-0.002924112,-0.11429749,-0.20839992,-1.2674236,-0.23238994,0.5457646,0.28335258,-0.05683775,0.056626868,0.07856226,-0.240672,-0.16444999,0.28105047,0.28536737,-0.36635068,0.008121212,-0.33789587,0.31392673,0.011362822,-0.15252286,-0.04331356,0.0395222,0.089984626,-0.060753293,-0.1670755,0.29444668,0.3387069,-0.29717562,0.4157421,-0.19175333,-0.028444009,-0.03932946,-0.04638651,-0.19419216,-0.04561035,-0.12388113,0.22987361,-0.13028973,0.011909675,-0.025112579,0.04445862,-0.04824016,0.036569048,0.668681,0.3674319,0.09527272,-0.41091424,0.032930207,-0.26828045,-0.0952597,0.20212986,0.08444501,-0.07222656,-0.1891708,0.82284,-0.2452702,0.27605164,0.3189962,-0.13586056,0.0633891,0.09089118,0.21257184,-0.03934564,0.39498478,0.2136244,0.036160637,-0.04891962,-0.7523677,-0.071273774,-0.2779907,0.16194707,0.07074122,0.12579493,0.12696289,-0.2120585,-0.0010899513,-0.24048236,-0.19097231,0.01314642,-0.013485722,0.0056316736,-0.05935364,-0.035331424,-0.09375037,-0.1252546,-0.067413,0.1751706,-0.12560193,-0.21724863,0.21171215,0.056316305,-0.11289714,0.11259805,0.39716437,0.13081607,-0.10095232,-0.4304114,0.9720272,0.24374019,0.10640925,-0.00015909957,-0.08080936,-0.091111556,0.50787437,0.05144632,-0.052184135,-0.099474385,0.048320364,0.28957444,-0.06542172,0.2901283,-0.414619,0.10148683,-0.13531698,0.030281547,0.06634848,-0.0011600496,-0.22507232,0.1906678,-0.35327843,0.08479463,-0.06054731,0.11891888,-0.17316586,-0.19151951,0.43345803,-0.04620117,-0.018551994,0.23474312,0.17777473,0.036406875,0.12945208,-0.083894774,-0.22418784,0.43158907,0.14368019,0.113367766,0.13641763,-0.1177749,0.2376929,0.09358387,-0.35765386,0.06890073,-0.13402174,0.08600716,-0.166337,0.122205004,-0.04975566,0.34989506,0.23092572,-0.014528895,-0.08264985,0.0616543,0.078422725,-0.5518585,0.109451264,0.056461696,0.0810516,0.15260173,0.09605291,-0.05324602,0.055937443,-0.38485172,0.10884579,0.045029875,0.49332085,0.24946174,0.398247,0.26363263,0.08457408,0.018067839,-0.2464138,-0.120281555,-0.024852242,-0.0031095727,-0.15947676,-0.22336137,0.12699425,0.054423686,0.5976045,-0.196353,0.07919695,-0.7780592,0.065147325,-0.17217758,0.12113395,0.037712708,0.4325206,0.2990376,-0.17155738,-0.045979425,0.025699744,0.0077854386,-0.40704006,0.07479666,0.017679574,-0.32429177,0.89436626,-0.028663864,-0.13856882,0.5286797,-0.1907052,0.05787819,0.1417477,0.04758738,0.12967545,-0.043465894,0.051302917,0.16814816,0.14902902,-0.06000343,-0.03674372,-0.0802209,-0.09061632,0.0785456,0.20186512,-0.07578808,0.11312169,0.3139299,0.24543165,-0.008398042,0.15489045,0.021379964,-0.020012828,0.1549572,-0.0027243886,0.04032481,0.23678438,-0.13435666,0.1058878,-0.59064466,-0.010172366,0.024994468,0.062474903,0.0012116978,0.10666174,0.10617739,-0.030758379,0.027217971,0.009119143,0.26000756,0.022430176,-0.25890628,0.08657331,0.1591233,-0.5969783,-1.1501925,-0.32062107,-0.041033883,0.8276583,0.5528341,0.034473877,-0.040531937,-0.10024578,-0.055546355,-0.14921121,0.15615384,0.24442346,-0.06444332,-0.22815776,0.14849466,-0.06327342,-0.09806899,0.045100044,-0.1263245,-0.03568974,0.14925157,0.03383078,0.0031658367,0.32682246,0.15081263,0.113854736,0.23117892,-0.07311598,-0.20579179,-0.035273187,0.3946403,-0.08558496,0.2637048,0.06957673,0.3434167,0.27353635,0.1628178,-2.1127284,-0.10430013,0.0888963,-0.21312909,-0.09552278,0.21631752,0.10451536,0.10640396,-0.07418331,-0.24846002,-0.15413381,0.17570977,0.45869064,-0.3304527,-0.28786784,0.08476892,-0.11440947,0.33588615,-0.058517057,0.06904927,-0.036828108,0.06402214,0.15648748,-0.07153121,0.0321123,0.116493545,0.19449724,-0.03672983,-0.3240359,-0.020819195,-0.25388074,0.28902957,-0.11978357,0.36565414,-0.2832077,-0.18465446,-0.046382725,0.23280855,-0.7629784,-0.28377122,-0.09351623,0.016350128,-0.039672498,-0.010057031,0.021042941,-0.10648406,0.2020814,0.34000465,-0.07662055,-0.075836785,-0.11946047,-0.6799675,0.3398896,-0.29882216,0.37366652,-0.18134142,-0.049353737,-0.17633903,-0.00846266,-0.41509727,-0.69199055,0.137976,0.04055267,-0.32143423,-0.038096745,0.15242516,-0.23122536,0.10931896,-0.23639329,0.018085662,0.013517406,0.041078422,-0.30017146,0.09073904,-0.2087062,0.09328608,-0.0701767,-0.94006604,0.031073475,-0.23898788,0.057531845,-0.12576178,-0.21366519,0.32691887,-0.016719267,0.097305045,0.07568457,-0.2299432,-0.30309352,0.09052426,-0.19264807,-0.18233548,-0.06268632,-0.10399698,-0.0504563,-0.2034027,0.15041314,0.15443106,0.1484256,0.21357328,0.4283588,-0.08797727,0.24458782,0.16986492,-0.32064685,-0.081860796,0.29056913,0.40688357,0.06109734,0.15774041,-0.04413318,0.0084635895,-0.13462478,-0.119863145,0.24770707,-0.053734917,-0.034114555,0.14413296,-0.23212095,-0.122268505,0.06672255,0.5342225,-0.20988943,0.0815421,0.04243321,0.01965353,-0.023161316,-0.08356541,-0.17696804,0.042748194,0.069382615,-0.35225308,-0.00084516936,0.0050379005,-0.36079738,0.04511981,0.055870127,0.04997575,-0.1116312,-0.1937908,0.39511573,0.12213874,0.01608986,-0.07367598,-0.06796943,0.12573752,0.026327398,0.07041749,-0.14015733,-0.03282244,-0.045477837,0.15540712,0.07742585,-0.26021966,0.09862439,-0.12955776,-0.11751235,0.070234165,-0.007050938,0.2609738,-0.103576936,-0.20554234,-0.063103214,-0.040040217,-0.5653866,-0.08453791,-0.033039927,0.05133677,-0.22124678,0.24032068,0.26673535,0.1661893,0.09102424,0.38918468,-0.020146001,0.2596066,-0.044818144,0.20268479,-0.035953462,-0.23018703,-0.24046873,-0.23114766,-0.12187268,-0.0085661,0.27933323,0.12162916,-0.118689924
belly_pain/69BDA5D6-0276-4462-9BF7-951799563728-1436936185-1.1-m-26-bp.wav,-0.21408457,-0.05289104,0.53717947,0.051158417,-0.14503607,-0.13318893,0.22280031,-0.1368406,-0.38480127,-0.11484217,0.35760915,0.22642823,-0.11447359,0.38619328,0.2281357,-0.1423088,-0.10921893,-0.26255614,0.053366255,-0.3545706,-0.29247868,-0.21473545,0.5032348,0.34952408,0.21190162,-0.14714539,-0.109414764,0.03422638,-0.25411218,-0.23493065,-0.13012107,0.06397081,0.024563532,0.17751794,-0.065941796,0.15974377,-0.14096005,0.050486773,-0.12083756,-0.31229824,-0.21033357,-0.26838532,-0.31828326,0.048785497,-0.13172306,-0.23758098,-0.07840565,0.14042106,0.13867271,-0.20771214,-0.0078063346,-0.06601325,0.08026441,-0.124650665,0.32330853,-0.001481533,0.23465772,-0.13938332,0.30428547,-0.10546489,0.2756499,-0.048374586,0.110170424,0.15379874,-0.3779153,0.3252253,-0.13249724,0.08922874,0.10894424,0.011318549,0.07156015,0.09618525,0.22428776,0.3691775,0.11414035,0.13745584,0.18338068,-0.024656555,-0.0894372,-0.05802782,-0.0738971,0.52424955,0.0678217,-0.116240315,-0.18676165,0.18374518,0.12550102,-0.13644253,-0.18264821,0.017225297,-0.569407,-0.14392972,0.02491304,-0.12130602,-0.35489953,-0.026986754,0.29340202,0.1286813,0.031386666,0.30194843,-0.36302307,-0.24972375,-0.025890244,0.060307756,-0.012598026,-0.38807765,0.028256763,0.0014709526,0.008978169,0.0043303547,-0.11666879,0.020747278,0.3374852,-0.09113152,0.40070873,-0.08929677,-0.088971615,0.2974086,-0.011482517,0.0570085,-0.5097608,0.12893836,0.5254448,-0.105691195,-0.46143815,0.12844141,0.146681,0.06261552,-0.042002104,0.054587945,0.08936269,0.02081624,-0.13232711,0.21742515,-0.12617745,0.39634722,-0.020292275,-0.057943717,0.16952139,0.30987424,-0.05978828,0.07877236,-0.15540434,-0.091064416,-0.1341453,-0.004811526,-0.7706808,-0.14577998,-0.50498873,0.001558311,-0.1647511,0.19645718,0.16289093,1.2657022,0.01462088,-0.15699843,0.039528,-0.45378375,-0.09213008,-0.072736196,0.03759289,-0.054786973,0.0006625536,-0.2823582,-0.019733038,-0.07507337,0.087459244,0.16358167,-0.024959803,-0.22915807,-0.0119407745,-0.13747652,0.36607602,-0.034127172,-0.00791303,0.6811526,0.09585136,-0.022868358,0.45182288,-0.086612605,-0.20987006,0.07615248,-0.12007394,0.014786931,-0.2652625,-0.03584456,0.14643428,0.14936773,0.07585784,0.26045704,-0.2314783,-0.07952487,-0.045942996,0.115157194,0.035960842,0.33571988,0.14520009,-0.028999873,-0.17387901,-0.0618903,0.031266466,-0.13293834,-0.2901421,0.34179538,0.15844533,-0.4800462,0.106528364,0.048506577,-0.17480738,-0.028153436,0.034135748,-0.15215637,0.052345455,0.071290284,0.027145408,0.006560545,0.1297238,0.097727954,0.08723457,0.12655935,0.25467458,-0.22467111,-0.058813695,0.13029405,0.12676619,0.3761852,0.16079505,0.04941107,0.11321432,-0.01445311,-0.11054973,-0.06277026,-0.028913826,-0.274994,0.25020432,-0.021506114,-0.009525052,0.14260858,0.17544049,0.013800699,0.057091404,1.0318103,0.15413561,0.0911727,-0.058755852,0.08982653,-0.042565677,-0.020109085,0.18241426,-0.5756551,-0.02798204,-0.021434687,0.05241079,0.23498237,-0.034580052,0.06100478,0.0980648,-0.0013987612,0.05219735,-0.43789104,-0.17634806,-0.33967355,-0.13328579,0.11964117,-1.1836733,0.06424864,0.08719505,0.0114193205,0.5724035,-0.031475123,0.0568176,0.12764001,-0.113667116,-0.0043505775,0.05810479,0.26518458,-0.09883932,-0.13681203,0.10321546,0.18395524,0.11943088,0.1110262,-0.41229138,0.22994639,0.023961594,-0.17086817,0.6496844,0.09664119,0.20954934,-0.1748862,-0.08823931,0.09984456,-0.13197495,0.10627159,-0.23067217,0.02911428,0.105338156,0.060107153,0.08962367,-0.1342792,0.09201412,-0.5400036,-0.23003903,0.25633729,0.17880157,-0.061003447,-0.23804648,0.07011503,-0.12782653,0.002690967,0.39334133,0.40348327,-0.2303026,0.3382263,-0.13174492,0.048542242,0.08345623,-0.03850977,-0.3024778,-0.09282047,-0.07710602,-0.0919193,0.051611066,0.2803424,0.43808585,-0.35317838,0.38174245,-0.34381518,0.044160873,-0.006156657,-0.043077674,0.17183909,0.019495316,-0.13515452,0.22874801,-0.041188564,0.27091873,0.08131629,-0.13645187,0.013119144,0.0655273,0.47327155,-0.15794224,-0.0208299,-0.24919677,0.08772049,-0.18533017,-0.13251363,0.7484517,0.03945075,0.16497251,-0.057976995,-0.75895536,-0.26736453,0.2767058,0.13843803,-0.21257867,0.06779476,-0.04726391,0.21738611,0.1943987,0.1643994,0.234194,-0.24674295,-0.09943586,-1.1447674,-0.024663614,-0.27959186,0.051671524,0.15452732,0.3546793,-0.25477046,-0.2355725,0.17981899,-0.093685575,0.48450625,0.12299042,-0.10079172,0.0650071,-0.04747379,0.107617244,-0.11855129,-0.116127186,0.099349655,-0.22683112,-0.15397486,-0.45741963,0.12837893,0.025515316,0.20486449,0.03873923,0.24114996,0.14057946,-0.2025976,-0.31202093,1.3772514,-0.020608164,0.13496192,0.052033953,0.123091504,-0.06089433,0.2502939,0.12728055,-0.3600474,-0.11911357,-0.02809094,0.058753468,0.13687775,-0.035832196,-0.36577833,-0.21030192,0.13752998,0.24148719,-0.021180548,-0.21374243,-0.061787415,-0.028568262,-0.34803078,0.23665671,0.0049028033,-0.015235901,-0.21406354,-0.31517082,-0.1189274,-0.1861757,0.020204678,0.013341485,0.28704813,0.030935265,0.49673668,-0.12872523,-0.033104856,0.8184082,0.13997495,0.030404149,0.23968029,0.17442662,0.21144463,0.2420496,-0.32716975,0.2082339,0.1116946,0.13688537,-0.048959907,0.05294163,-0.09951855,0.04500638,0.12808931,-0.082775176,-0.11442536,0.12533209,0.2051161,-0.14256439,-0.11330519,-0.05361675,0.117569715,0.19852738,0.20465475,-0.08642257,-0.049746506,-0.40214482,0.029548775,-0.06982905,0.13457991,0.13254988,0.35246027,0.08934665,0.16032895,-0.21199681,-0.11897662,-0.1287217,-0.28951636,0.05144127,0.07875452,-0.47857347,0.2798196,-0.104360916,0.3073347,-0.28170583,0.011405121,-1.0604972,-0.0461663,-0.052124325,0.23716205,-0.010689571,0.33939293,0.2775213,-0.33454734,0.11397246,0.07249011,-0.118199214,0.0061597605,-0.015008929,0.12253873,-0.18207797,0.38072383,-0.1876339,-0.13579755,0.3477374,-0.013858563,-0.24986534,0.07868887,0.14383937,0.1837044,-0.019178303,0.117260516,0.15374868,0.13647462,-0.09322627,0.05720057,0.031084834,0.050888024,0.14223778,-0.08607055,0.075694405,0.0050661843,0.30766955,-0.035297845,-0.02280388,-0.019080546,-0.061813053,-0.034675952,0.1474563,0.039896052,-0.11080729,-0.03150374,0.22879182,0.0514426,-0.56080717,0.28100032,0.114489615,-0.29450536,-0.17696285,0.09084809,0.2221296,-0.057870563,0.038807526,0.043075442,0.20852713,0.033466958,-0.54899013,-0.003076884,0.18942668,-0.17863393,-0.0766653,-0.26939622,0.18024826,1.016556,0.32512408,-0.07823301,0.23535852,-0.09064577,-0.017538745,-0.12526415,-0.0933394,-0.005380014,0.0065098507,-0.20287795,0.19146009,-0.02416009,-0.09538538,-0.049989585,0.11042718,-0.005342411,-0.12383649,0.10283511,-0.1596295,0.22114933,0.10826518,0.06162543,0.20991288,-0.23305492,-0.05880229,-0.1598585,0.4251839,-0.13138346,0.058067173,-0.13654953,0.25853047,0.17095779,0.13086507,-1.7660649,-0.09525741,0.14721262,0.087376624,-0.1433059,0.07882188,0.22975218,0.11597896,0.10224056,0.14039215,0.08487509,0.042878482,0.2034704,-0.43693337,0.002026591,0.024522666,0.059472967,0.2838779,0.11642763,-0.0644241,-0.23225565,0.12109904,0.07870896,-0.15045731,0.025371406,-0.051359624,0.46753174,-0.14127423,-0.26953962,-0.08119573,-0.05734557,0.37097484,-0.038880378,0.29601917,-0.46734732,-0.09948395,-0.031833872,0.22371009,-1.0418286,-0.08904747,-0.1419361,0.0037453312,0.07049615,0.0064489767,-0.072390884,-0.16544369,0.03253243,0.13761863,-0.019970994,-0.09116593,-0.21266548,-0.6839413,0.16453207,-0.20635234,0.1155963,-0.061352644,-0.1465355,-0.100921065,0.008584762,-0.38466105,-0.23717254,0.18965566,0.033546966,-0.35322946,0.032192305,0.10983889,-0.09591064,0.3353759,-0.09445878,0.15515782,-0.085599005,0.06852257,-0.19876407,-0.18079437,-0.04970342,0.06719418,-0.13461281,-1.1200945,0.027785914,0.1377749,0.0069713574,-0.13870142,-0.24242325,0.3124528,0.15081209,0.23991129,0.024590105,-0.380144,-0.30375504,-0.030443389,-0.045586612,-0.26400593,-0.13784365,-0.1770823,-0.10774209,-0.027709749,0.24096978,0.19685464,0.13905218,0.18455131,0.29629403,-0.15111707,0.2079558,0.105758145,-0.2795412,0.07762485,0.1863989,0.2907621,0.023181062,0.34310868,-0.13794526,-0.10986452,-0.16223267,-0.18124683,0.32092723,-0.38352922,-0.09974537,-0.116424985,0.03244904,-0.49421826,0.19019645,0.2693229,-0.044738665,0.07612751,0.14835927,0.016329302,0.064207785,-0.32368731,0.03761994,0.18373388,0.05959661,0.25864193,-0.13921389,0.0136359725,-0.10437156,0.08113057,0.0070460294,0.28648618,-0.22089761,-0.2809307,-0.06427166,0.063397706,0.029885978,0.19997473,-0.2976988,0.17185357,-0.03643135,-0.049021117,-0.099891946,-0.059412893,0.026508115,-0.1192906,0.08641038,-0.032268234,0.42132652,-0.195295,-0.05854082,-0.1040911,0.1080654,0.24468306,-0.17807505,-0.19654249,-0.068017825,-0.025126066,-0.2340826,0.008813298,-0.236221,-0.36684227,-0.03284789,-0.11686808,0.22165343,0.07137528,0.19805886,0.18462026,-0.06770384,0.10049892,0.051437885,-0.26958266,0.039057847,-0.13914888,-0.39755672,-0.23344043,-0.028605409,-0.0784276,0.03568853,0.07307663,-0.17605366
belly_pain/643D64AD-B711-469A-AF69-55C0D5D3E30F-1430138495-1.0-m-72-bp.wav,0.13934103,-0.15197095,0.34195787,0.06031811,-0.30478698,-0.23204087,0.46432236,-0.23616378,-0.3346284,0.06656145,0.33346334,-0.23310754,-0.26161242,0.1998763,0.016500909,-0.29310185,-0.014302822,-0.10425781,0.09274492,-0.118438184,-0.18192998,-0.11002246,-0.6471214,0.20432447,0.387184,-0.12083329,-0.12938975,0.071844555,-0.4789493,-0.060787268,-0.17200847,0.044826537,-0.0940945,0.058160182,0.0743508,0.10503884,-0.12300702,0.050372694,-0.06522725,-0.38494805,-0.1794764,-0.084705345,-0.1900427,0.14805365,-0.090714805,-0.11068417,-0.047473144,-0.15165754,0.22501767,-0.2102324,0.0040841606,-0.0035072067,-0.10245416,-0.11980363,0.47828102,-0.13613193,0.1748574,-0.11883378,0.13105185,0.02641614,-0.06771128,0.12174265,0.17924272,0.13120465,0.008333015,0.027166309,-0.03729496,-0.072709866,0.08113716,0.19748664,0.16246495,0.21100536,0.23470041,0.32165006,0.11293241,0.15922543,0.19425741,-0.19279681,-0.1932171,0.045513302,0.19848132,0.8410398,0.013238489,-0.33636808,-0.14159459,0.17084505,0.2432695,-0.22580804,-0.0842052,0.028646948,-0.609808,-0.20229706,0.14833142,-0.12122638,-0.426658,0.07609445,0.13713537,0.20564163,0.13913023,0.21828155,-0.22390121,-0.42287862,-0.2582418,0.1353097,-0.012121535,-0.436054,-0.05942587,0.012945274,-0.120056964,-0.040330578,-0.2850558,0.1209872,0.2068295,-0.18031895,0.26608512,0.2980001,-0.07232272,0.00021714519,-0.084992446,0.050478693,-0.38921458,0.10691244,0.10516432,-0.1688498,-0.43222484,0.30448356,-0.07070901,0.11153536,-0.07686771,0.20363164,0.02895316,-0.4541525,-0.10602902,0.28480992,-0.10354718,0.31080422,-0.010623369,0.09001342,0.3179045,0.245942,0.043261666,0.15460615,-0.19277988,-0.12861253,0.017310034,-0.07227622,-0.7769253,-0.32747898,-0.10795996,-0.090312265,-0.11682559,-0.08033771,0.11544662,1.3755765,-0.0324421,0.040396333,-0.037884165,-0.37244493,-0.2171957,0.06472764,-0.033342864,-0.003796377,0.03487977,0.013784626,0.13251214,-0.07585274,0.2347233,-0.076512225,-0.22727968,-0.35683668,-0.11285281,-0.3766734,0.35855755,0.073858745,-0.11612989,0.34367326,-0.22283398,-0.0031666816,0.3658775,-0.16407901,-0.32529655,0.2240807,-0.05448543,0.22017258,-0.39626586,-0.009296248,0.04451793,0.31256005,0.09573008,-0.009967273,-0.24991468,0.0025512765,0.032577094,0.14435346,0.02622193,0.2641611,0.18591027,-0.23911488,-0.070126064,-0.029073166,0.012211369,-0.04857558,-0.3841273,0.76417816,0.10298854,-0.2083573,0.18605973,0.1556202,-0.27994153,0.10824432,0.21754232,-0.30921504,0.09839502,0.16779773,0.18629484,-0.09335233,-0.055052403,0.11018845,-0.114412546,0.1358509,0.3229876,-0.20493728,-0.109679244,0.17124763,0.10191554,0.433241,0.055365976,0.05821214,-0.16398013,-0.2443388,-0.14641969,-0.13909894,-0.15459037,-0.14333883,0.2060312,-0.046791993,0.013111526,-0.11360346,0.16907303,0.057853,0.09826189,1.4348588,0.041515775,0.0009792693,0.088744506,0.048853543,-0.005237262,-0.027833622,0.1470803,-0.12954591,0.05076528,0.028547678,0.25047544,0.21028301,-0.13158557,-0.057919778,0.07985478,-0.083860554,0.1846299,-0.78812504,-0.2833737,-0.21155652,0.121239394,-0.051118255,-1.0084066,0.008204324,0.0075575695,0.23809402,0.3515576,-0.17230399,-0.016458409,0.090845995,-0.19000353,0.03495067,-0.13746156,0.07812447,-0.1630387,0.01957907,0.18237218,0.16015737,0.15268119,0.16696927,-0.18652092,0.13723634,-0.09547274,-0.23861128,0.56587017,0.083266035,0.1009598,-0.030455217,-0.34680992,0.19118415,0.0068279062,0.12673956,-0.26855654,-0.009581208,0.10595916,-0.17378512,0.038909856,-0.132351,-0.09213025,-1.0254381,-0.074197225,0.516286,0.26238114,-0.021048374,0.07423929,0.084649794,-0.11289938,-0.10628538,0.29569092,0.3001473,-0.26726702,0.15402336,-0.37148166,0.3369656,0.13799205,-0.10135093,0.013747859,0.10541459,-0.19251889,-0.041188248,-0.10290805,0.2988937,0.35168353,-0.27152663,0.33345068,-0.21820092,0.030835813,-0.061469678,-0.01300363,-0.22996637,0.049401462,-0.1715901,0.35561728,-0.118759125,0.06775646,-0.079429306,-0.016947333,0.04305071,0.038546037,0.46899337,0.46352315,0.13323449,-0.43780613,0.0740426,-0.3549552,0.06130043,0.32606658,0.06768129,-0.08168076,-0.0004578295,0.84408176,-0.10929562,0.30215034,0.2673009,-0.15652886,0.119408004,0.07078748,0.20074889,-0.108563714,0.35290605,0.26847118,0.058428872,-0.18045062,-0.843509,-0.10911501,-0.20594075,-0.05176633,0.06480769,0.09840718,-0.08879403,-0.20479973,-0.028741919,-0.15767576,0.046911918,-0.2068371,-0.10935825,0.14336126,0.045901645,0.02335744,-0.0023386406,-0.10646174,-0.003421518,0.1463869,-0.19533774,-0.3200542,0.19918883,0.036336157,-0.13002628,0.018132979,0.3278406,0.07267121,-0.13181528,-0.4014019,0.73747194,0.21561529,0.2335618,-0.049936403,0.062216662,0.07571509,0.39016524,0.01766356,-0.1299353,-0.08626697,-0.111342706,0.3364109,0.10207345,0.14575413,-0.3167921,0.07545787,-0.090176724,-0.015728977,0.0031586222,0.045384716,-0.18339548,0.079300255,-0.3708589,0.11642857,-0.1023367,0.0256074,-0.32126763,-0.17150682,0.31989112,-0.04641986,-0.06822032,0.009381005,0.051435795,-0.065398335,0.2685254,-0.15050246,-0.08555121,0.47630322,0.11319586,0.12813695,0.11387463,-0.05799979,0.16416827,-0.1171699,-0.26711795,0.039875213,-0.23946875,0.0005538352,-0.11965002,0.15322672,-0.023192909,0.36412203,0.0979252,-0.036879033,-0.037584506,0.053059362,0.11847288,-0.6219274,0.09572267,-0.0011735868,0.14435688,0.4626299,0.07397195,-0.032927323,0.07850213,-0.36447152,0.07596459,0.009954407,0.49932423,0.24043448,0.26174423,0.25073212,0.27014565,0.046745874,-0.3561963,-0.13969049,-0.08822713,-0.01644463,-0.10705721,-0.18325077,0.1251625,0.026184063,0.6450551,-0.123225726,0.1840495,-0.73151827,0.097922616,-0.20498368,0.28979227,0.020439228,0.33778143,0.04786288,-0.20990637,-0.1786523,0.080522776,-0.001029367,-0.33432004,0.036999706,0.11469932,-0.17166615,0.74197334,-0.0633037,-0.15132523,0.3080638,-0.16498333,-0.030494327,0.15008129,0.02231787,0.0995787,-0.111993946,0.15730645,0.28577325,0.12595479,0.06993992,-0.069751926,-0.09893179,-0.08244351,0.11007773,0.22564597,-0.15132923,-0.019997245,0.4203138,0.16248977,-0.050666098,0.28301835,-0.13672465,0.010922451,0.17562462,0.008132205,-0.03988577,0.10469123,-0.043323874,0.023918837,-0.66606444,0.1719707,0.04410287,0.1063385,0.020535199,0.16470489,0.1223735,-0.011216135,-0.01720036,0.00029817433,0.27807623,-0.021528082,-0.32997462,0.12979116,0.063797474,-0.4429958,-1.4818549,-0.29552463,0.10630115,0.8632923,0.5867954,-0.022926256,-0.119806916,-0.20046842,-0.08462329,-0.20944874,0.11800097,0.3484153,-0.015581704,-0.21652155,0.10737771,-0.0080015855,-0.0800758,0.15540391,-0.0066402834,-0.059015412,0.00966542,-0.15815212,-0.12113053,0.14997822,0.08578705,0.108785905,0.26344824,-0.04906665,0.040281147,-0.10029012,0.27763438,0.026882734,0.33748642,0.10617754,0.43568888,0.30052373,0.14687005,-1.8077021,-0.059513174,0.0032515035,-0.36764023,-0.20270844,0.20671217,0.025451288,0.14002034,0.011817954,-0.24724498,-0.07878449,0.09973678,0.5290155,-0.30883902,-0.2776884,0.08232163,-0.18079515,0.29958484,0.051630277,0.039179612,-0.07971219,0.026086356,0.05304187,-0.17910022,-0.031144986,0.1334053,0.0722213,-0.08183913,-0.33449963,-0.049644638,-0.34412175,0.32105687,-0.08333212,0.37646523,-0.18299015,-0.18483402,0.033157673,0.18485105,-0.80199826,-0.26767096,-0.1390659,-0.08514764,-0.11115321,-0.20678027,0.052454744,-0.11266023,0.31181446,0.396031,-0.0534598,-0.026265273,-0.10552186,-0.6007027,0.24103273,-0.31393504,0.4277687,-0.23729303,-0.11120412,-0.36881933,-0.0063950135,-0.28596416,-0.47111377,-0.04315259,0.116695896,-0.29124767,0.0021752974,0.18048474,-0.2277627,0.15438935,-0.17863138,0.0827432,-0.022388058,0.042935777,-0.23484841,0.105452806,-0.028886508,-0.011828177,-0.048465963,-0.9488613,0.011904561,-0.49823287,0.08794533,-0.003489768,-0.34598032,0.4490454,-0.04075883,0.1648391,0.06358945,-0.3038458,-0.42298344,0.107936345,-0.2943214,-0.16790536,0.015744848,-0.08630856,-0.09063646,-0.071620494,0.18985112,0.100936696,0.15930432,0.16954331,0.45937634,-0.20986184,0.3003178,0.16668452,-0.21650903,-0.12511648,0.28509617,0.55292785,0.022404928,0.22470973,-0.05594836,0.099980734,-0.23255968,-0.1611855,0.3336352,-0.021221206,-0.016897768,0.16396637,-0.077578254,-0.23150215,0.058318824,0.4128564,-0.10900568,-0.003933341,-0.016341992,-0.029325895,0.056873955,-0.025603805,-0.29530665,0.10356627,-0.000133737,-0.29408035,-0.031767722,0.027936572,-0.35122073,0.04052724,0.017082652,0.07112513,-0.059158184,-0.14732134,0.2975347,0.12748733,-0.0030178893,-0.024368586,-0.2575831,0.11040183,-0.0072489986,0.09796651,-0.20392385,-0.05427268,0.17515352,0.22621292,0.09491815,-0.263104,0.03442656,-0.124417916,-0.11425887,-0.028800562,0.10502276,0.58214754,-0.20429184,-0.22214551,-0.16040798,-0.15753137,-0.5477535,-0.07117698,-0.19336626,0.15670136,-0.27764013,0.23003729,0.4087447,0.07184104,-0.010649379,0.2097902,-0.019262804,0.30246067,-0.063350484,0.101666346,-0.019284733,-0.17654462,-0.34923595,-0.28689727,0.004429201,-0.01986205,0.22467472,0.11573621,-0.102175124
belly_pain/643D64AD-B711-469A-AF69-55C0D5D3E30F-1430138591-1.0-m-72-bp.wav,0.10123984,-0.009826284,0.03789079,-0.05978756,-0.10291959,-0.10786322,0.305142,-0.10032207,-0.20930481,0.07344368,0.2830098,-0.15192606,-0.14460985,0.32763028,-0.015572932,-0.13148168,0.28136346,-0.12062312,0.044029444,-0.253786,-0.19298477,-0.054961655,-1.3255465,0.21243806,0.29905885,-0.23032762,0.11680329,0.0063222614,-0.33519316,0.033881463,-0.23972952,0.12456683,0.03354354,0.14535621,-0.15078369,-0.0075504505,-0.32425052,0.1285923,0.004273378,-0.06586753,-0.21999337,-0.62172246,-0.13687119,-0.19297205,-0.19712596,0.059764523,-0.18265918,-0.11474629,0.3086437,-0.29177347,-0.05459817,0.39474088,0.07218265,-0.19270433,0.41781473,0.30632743,0.082014725,0.2337494,0.08852774,-0.12360775,-0.077736504,0.092904285,0.017815754,-0.017902078,-0.27477032,0.08108062,-0.10067311,-0.20398629,0.00827766,0.23383677,0.22507477,0.084685005,0.23317714,0.13572851,0.12661831,0.21542881,-0.067326136,0.043706253,-0.11055526,-0.02014454,0.28432116,0.7538516,-0.04007988,-0.377242,-0.24897198,0.09732414,-0.007803266,-0.19316792,-0.09460512,-0.0015261053,-0.5939996,-0.04186017,0.04294128,-0.19969475,-0.4104885,0.16734989,0.23895755,0.08093286,-0.11064233,0.15152673,0.04207145,-0.47668758,-0.14899509,0.118457496,-0.00081084645,-0.5686967,0.017758284,-0.00056190457,0.03471905,-0.14477739,-0.12460673,0.032764688,0.28978556,-0.10180566,0.34857598,0.08940486,-0.16483067,0.12992214,0.0062896265,-0.060141373,-0.63977724,0.32971776,0.25701484,-0.2055506,-0.34273553,0.2980264,0.0778545,0.054075275,-0.051127207,-0.14966466,0.26633024,0.23090836,-0.18053219,0.40097994,-0.10456778,0.3825959,-0.2039382,0.13800843,0.36452365,0.5747129,-0.019423764,0.15050611,-0.13606617,0.1636684,0.06926039,-0.0265445,-0.92089677,-0.060807448,-0.41989332,0.0102220075,0.29760927,0.24007092,0.115146644,0.7267477,0.12300014,-0.17615622,-0.10472922,-0.42099717,-0.09284802,0.13622068,0.080982514,0.0064501367,0.034619078,-0.13382839,-0.11598582,0.002426817,0.26772463,-0.039109,0.04716266,-0.29469115,-0.1381178,-0.37964398,0.11896964,0.022335758,0.13285066,0.3592707,0.46034113,-0.08728396,0.28842044,-0.36245903,-0.09002411,0.20765968,-0.06265424,0.12017935,-0.6695304,0.04130972,0.1736789,0.2753916,-0.06410889,-0.114283584,-0.1658771,0.013234837,-0.06108449,0.05314963,-0.033437446,0.27945596,0.48946536,-0.29064792,-0.084329344,0.16134141,0.08786164,-0.08667511,-0.2150804,0.60792994,0.0673849,-0.31318414,0.13329525,0.1703658,0.08502642,0.022896826,0.37441167,-0.11392696,-0.12419295,0.18342407,-0.14154437,-0.033837672,-0.26474372,-0.10738041,-0.055062503,-0.12287752,0.28607082,-0.26323134,-0.011925027,-0.07999418,-0.038735207,0.4210981,0.04452215,0.13162816,0.10627514,-0.20702839,-0.102949694,0.07000805,-0.13319601,-0.04535197,0.22576699,0.016877318,-0.015715303,-0.039093804,0.18628977,0.06452801,0.093553975,0.83325213,0.069631174,0.07818893,0.15156928,0.16069299,0.23893635,-0.10861534,0.13651237,0.11612469,-0.052484546,0.085446656,0.1245143,0.24332336,-0.018113507,-0.010795023,0.28149772,-0.14049022,-0.07767115,-0.525458,-0.37294596,-0.25290912,0.04360609,0.08265063,-1.0038754,0.30653626,-0.08330987,0.09921368,0.36946586,-0.08458171,0.098483145,0.19198819,-0.13293147,0.0587056,0.0636992,0.20658632,-0.024208313,-0.12539992,0.07952843,0.3962865,0.09878363,0.24613152,-0.24342048,0.17744385,-0.03966602,-0.27482772,0.6470881,0.19249526,0.07423964,-0.5763667,-0.40865836,0.5935248,-0.12778321,0.13492674,-0.4161603,-0.100501806,-0.03320508,-0.05690207,0.2412245,-0.1692631,-0.028088108,-0.6642266,-0.14858964,0.42833275,0.23943868,-0.26338312,-0.10071618,0.15610786,-0.22809778,0.13478144,0.746627,0.31274813,-0.3580111,0.21900842,-0.19635908,0.09043426,0.17714594,-0.1775106,-0.1539304,-0.09295173,0.21228008,0.12788463,0.012509986,0.28650972,0.32222918,-0.312936,0.45591962,-0.21756318,0.11716352,-0.046682578,0.19178262,-0.006906692,-0.040695995,-0.09839983,0.021536907,-0.10160729,0.13385554,0.12106412,0.016777972,-0.17042862,0.044988003,0.26677868,0.16866446,-0.0073989085,-0.15576912,0.044779014,-0.20609725,0.3599499,0.20807022,-0.080739096,0.1625496,-0.13493493,0.7516697,-0.38075882,0.27967352,0.1918596,-0.0012747356,0.10544033,0.06588394,0.08379888,-0.17514774,0.2834089,0.2891013,-0.14398025,0.019025188,-1.3912039,-0.015999796,-0.3045753,0.118599385,-0.0055248053,0.14582393,-0.09274853,-0.19674309,0.08831506,-0.62860507,0.16309248,-0.43978524,-0.21153787,-0.023067785,0.09105844,-0.18453398,-0.08183236,-0.08524776,0.05355015,-0.3557654,-0.20027016,-0.201774,0.16622688,-0.14405453,0.048357435,0.07143763,0.22028571,-0.025693033,-0.13132028,-0.1481508,1.0139191,0.056714356,-0.0020292064,0.15153272,-0.16674384,0.19227104,0.20237373,0.05431612,-0.2741707,-0.10967589,0.012440082,0.47476947,-0.31713018,0.197512,-0.3485536,-0.09760118,-0.15896855,0.016636327,-0.038993686,0.10720493,-0.18455663,0.12796946,-0.3326223,0.15112405,-0.15455572,0.118239015,-0.16801645,0.004512836,0.13323186,-0.2798326,0.1746831,0.1575579,-0.1371198,-0.07145434,0.21603568,0.057438012,-0.0016001317,0.6431029,0.11691315,0.07032258,0.10343895,-0.32199782,0.16697209,0.1595025,-0.5659624,0.17072694,0.12895182,0.18801159,-0.09560982,0.11793972,-0.084792934,0.14513132,0.29774547,0.0011503289,0.0033184686,-0.088817835,0.19654608,-0.4805996,-0.030828107,0.09761574,0.08784172,0.1637418,0.11764138,0.1342345,-0.17198071,-0.56792724,0.035019122,-0.119296096,0.34053227,0.20922215,0.4042288,0.019862775,0.08750098,0.042951826,-0.19920982,-0.15832375,-0.30260032,0.16487953,-0.2886636,-0.13973169,0.18622094,-0.04262918,0.56580067,-0.21618694,0.13028891,-1.3745981,0.047831893,-0.07036391,0.22025242,-0.07162392,0.44328186,0.2591584,-0.27035493,0.022281477,0.07080293,-0.11061782,-0.5021463,0.023321964,0.045904994,-0.42097813,0.91040057,-0.038680173,-0.2063015,0.3486782,-0.1537482,-0.15324073,-0.005871052,0.120838866,-0.097433366,-0.13697152,-0.122721404,0.04628797,0.35526717,-0.08757996,-0.031034745,-0.06098374,0.047593847,0.101632684,0.2031432,0.0021334006,-0.08148586,0.3436958,0.19504677,-0.016019315,-0.0076384284,-0.034840964,-0.083255686,0.22636245,-0.020818165,0.18801574,-0.02287355,-0.1458574,-0.032785885,-0.39919427,0.36266437,0.07335513,-0.11123395,-0.1072342,0.06766504,0.11105021,-0.032630045,0.22561918,0.056216914,0.25767252,0.036202498,-0.32244828,0.14156286,0.039130636,-0.20584275,0.6785119,-0.22987475,-0.09034858,1.2267663,0.30605522,-0.016297953,0.11564304,-0.22396818,0.071086206,-0.0082793655,0.06482971,0.015018824,0.06277134,-0.2890616,0.43810323,-0.08365855,-0.015285696,0.036784124,-0.029082501,-0.004716156,0.1270826,-0.39035466,-0.22474939,0.29360425,0.004174321,0.16573289,0.45094264,-0.34834993,-0.4019917,0.0015806518,0.36396337,0.073842175,0.31460723,0.14169821,0.11883002,0.3289969,0.16776316,-1.915546,0.10939346,0.039576065,-0.04830489,-0.07694116,0.13215774,0.21224666,0.049059186,-0.016181966,0.011027448,-0.0049729724,0.097200684,0.36555648,-0.59073395,-0.23453677,-0.0021995367,-0.105463676,0.24196376,0.033319283,0.10585869,0.04878992,0.18430263,-0.061805513,-0.047296047,0.08030191,0.025727188,0.20873715,0.00070559315,-0.36474007,-0.03081561,-0.22427826,-0.013675714,-0.13025664,0.4447171,-0.22353077,-0.09957207,-0.032332905,0.17770682,-0.76169556,-0.39460745,-0.09587801,0.06299925,0.029129928,0.1439639,-0.03692923,-0.19858356,0.0038205022,0.51458794,0.06808072,-0.0111297835,-0.18923408,0.11486074,0.10221109,-0.27830982,0.021592656,-0.26452968,-0.23108275,-0.30075946,0.066488735,-0.460028,-0.6948463,0.47804692,-0.08539773,-0.13417067,-0.0076217656,-0.11545933,-0.33812442,-0.2576407,-0.30911458,-0.020044392,-0.10273866,-0.17257495,-0.17234005,0.22325912,-0.115976326,-0.08328772,-0.09657484,-0.98613375,0.023070661,0.07376664,0.08733028,-0.07370882,-0.35218126,-0.12320426,-0.07766837,0.08694562,0.010948141,-0.38105503,0.03674033,-0.01983672,-0.32933286,-0.28162,0.041675165,-0.07356857,-0.113985196,-0.18859394,0.29025483,0.23336188,0.05010194,0.13847995,0.30132297,-0.0398059,0.38458928,0.04668597,-0.2745817,-0.42900893,0.29079846,1.4362571,0.3944985,0.09032362,0.20245133,0.0904916,-0.17493564,-0.1509879,0.26417175,0.22887313,-0.047998104,0.19596076,-0.22090061,-0.6047786,0.049451474,0.30439743,-0.13335422,-0.029740129,0.22815305,-0.025264477,0.09647472,-0.19560513,-0.119837046,0.032933515,0.011250221,-0.3524927,0.00035573306,0.042875715,0.31314945,0.113132305,0.032906823,-0.043140765,-0.093519524,-0.28382465,0.20244907,0.000579309,0.17754,-0.048145317,-0.07105642,0.055425975,-0.03786061,-0.030714327,-0.24668047,-0.12814702,0.11750981,0.15755305,0.19500802,-0.12009875,0.3162246,0.21801275,-0.06827862,-0.054409843,0.15419948,-0.046891734,-0.045937616,-0.21888497,0.053188432,0.0073945993,-0.3327249,-0.13826077,-0.4260265,0.13023365,-0.29552293,-0.16611928,0.0323686,-0.15699004,0.2725829,0.1912924,0.15215932,0.18343967,0.00438683,0.09774029,0.05777353,-0.41083848,-0.37125233,-0.3544859,0.043914452,-0.16276611,0.20953766,0.16982141,-0.22819369
belly_pain/643D64AD-B711-469A-AF69-55C0D5D3E30F-1430138647-1.0-m-72-bp.wav,0.010690654,-0.09123877,0.24449529,0.14405377,-0.43700725,-0.25705895,0.5319204,-0.18517461,-0.24419603,0.12863226,0.31955746,-0.13256851,-0.18543333,0.22289635,0.33842498,-0.064946786,0.04370124,-0.17766991,0.10166751,-0.23512006,-0.22842331,-0.1360624,0.02273041,0.12362578,0.17643683,-0.09767359,-0.005586188,0.088022485,-0.4720859,-0.100844845,0.07213036,0.027885424,0.08391769,0.10975907,0.22057483,0.21429035,-0.07507276,0.0333189,-0.23746637,-0.40446854,-0.14400505,-0.017245447,-0.2582062,0.082834706,-0.022506353,-0.049328092,-0.13131085,-0.12600473,0.0921086,-0.16318022,-0.034653883,0.090224735,-0.0591003,-0.33952898,0.49698216,0.015376009,0.19827712,-0.10513409,0.32360342,-0.12690945,-0.19023463,0.18241507,0.01775832,0.19097717,-0.17308633,-0.00832888,-0.047192916,-0.06311447,-0.05268249,0.13424186,0.16079406,0.15271078,0.18330345,0.2593802,0.09550212,0.17468652,-0.12910607,-0.19159213,-0.16719237,0.08443591,0.05704913,0.90078515,-0.0075745494,-0.13094603,-0.13039811,0.24206764,-0.025468042,-0.17301516,-0.1563401,-0.011091833,-0.46626776,-0.24058826,0.008534238,-0.1010183,-0.35573187,0.055029057,-0.8391769,0.14746954,0.10207402,0.3116383,-0.00927343,-0.5730923,-0.1281636,0.092591695,-0.013514437,-0.3823479,0.11924306,0.06270079,-0.030319126,-0.10459949,-0.17959838,0.028535673,0.2783679,-0.02174572,0.20319891,0.07853995,-0.0020294376,0.04233243,0.10072198,-0.14762133,-0.3500303,0.28660598,0.29388157,-0.34786728,-0.20753048,0.6148248,-0.20303102,0.08477419,-0.045636773,0.023007011,0.23922014,-0.320318,-0.24226804,0.18587859,-0.15903713,0.26688594,-0.03112394,0.039928,0.23170301,0.05510504,-0.003073965,0.2949969,-0.18727595,0.11546707,0.082319856,-0.07633856,-0.8668003,-0.35258168,-0.15831415,-0.05454542,0.033162255,0.2554939,0.2523339,0.96288896,-0.0126572205,-0.27156448,0.0028357413,-0.32471967,-0.29536074,0.11055601,-0.050785746,0.12062958,-0.16346414,-0.006707566,0.20385355,-0.0048551797,0.38657793,-0.2998761,-0.2555459,-0.3363492,-0.13021259,-0.40121135,0.18168175,0.4536925,-0.039739262,0.26294008,0.12799942,0.050831504,0.30270755,-0.1722786,-0.22596662,0.23697923,-0.22173473,0.2106303,-0.39459828,-0.03576472,0.037351783,0.057791248,-0.003014512,0.16990401,-0.26281172,-0.048211057,0.013441191,0.13529092,-0.05937349,0.14716205,0.2586915,-0.31425947,-0.017318929,0.036060777,0.10132067,-0.062532105,-0.41083997,1.0077828,0.24224086,-0.32680303,0.17168507,0.10903044,-0.09700034,-0.03822606,-0.06947635,-0.39280352,0.07771856,0.22816609,0.09727268,-0.080596276,-0.08122979,0.1675362,-0.019962052,0.09397743,0.16510701,-0.21568897,-0.08641652,-0.077036165,0.079144165,0.3705715,0.10090001,0.02933772,-0.15501332,-0.053541515,-0.15356243,-0.076536305,-0.097850524,-0.17928351,0.13130718,0.07783571,-0.0015035393,-0.18828417,0.14395563,0.09279045,0.23751383,1.6063288,0.2546746,-0.048944555,-0.15918717,0.13463184,-0.018024692,-0.037815027,0.030094841,-0.008622942,-0.069190234,0.02418693,0.20319685,0.15225922,-0.14189442,-0.09631212,0.1308245,-0.32988018,0.05008469,-0.658746,-0.2757082,-0.26020804,-0.06350691,-0.055590376,-0.969714,-0.012801591,0.10793802,0.10401776,0.5152125,-0.18787248,0.03616632,0.09913354,-0.15964092,-0.011437453,-0.18056564,0.116918966,-0.1167981,0.006074033,0.007598258,0.31544164,0.149988,0.13195865,-0.47368568,0.21257444,-0.16940908,-0.07804125,0.6202498,0.0669378,0.10446403,-0.19209069,-0.5532708,0.43236348,-0.12850444,0.14264959,-0.27568713,0.27936012,-0.0015597581,-0.20849775,0.017538538,-0.06680997,-0.12697195,-0.79317605,-0.23899733,0.47468257,0.28488725,-0.017545858,-0.053842794,0.09742795,-0.22611243,-0.12781703,0.18538204,0.27578303,-0.24453449,-0.005654805,-0.33950374,0.07892136,-0.030084359,-0.1486254,-0.113298915,0.015450747,-0.056451753,-0.038013365,-0.1107606,0.28167114,0.26304212,-0.21262486,0.3144895,-0.3261402,-0.065830745,0.02318519,-0.04659497,-0.06831545,0.070838384,-0.023079475,0.054733053,-0.20111871,0.039048128,0.012957521,0.06250272,0.0068330416,0.017664261,0.57241434,0.17414892,0.051786494,-0.38579974,0.12816207,-0.27830803,-0.064182505,0.2801159,0.013455947,-0.009965285,-0.034918237,0.69628245,-0.18322352,0.3312294,0.27187803,-0.14623901,0.010425441,0.080109045,0.12616745,0.04628934,0.30549026,0.3230704,-0.08068377,-0.012079198,-0.8977178,-0.07813733,-0.26617002,0.23127727,0.07208103,0.25339007,-0.0053044423,-0.2614922,0.029017102,-0.20835039,-0.17877832,0.22591177,0.053363293,0.036337923,-0.25018555,0.037237972,-0.29049206,-0.060735025,-0.051362257,0.23499598,-0.06834167,-0.19687667,0.21647167,-0.074659176,0.079567395,0.25791422,0.31476793,0.208679,-0.12000996,-0.57888424,1.0186461,0.2164433,-0.108052894,0.030546602,-0.029150086,-0.14432862,0.46415868,0.02804876,-0.08318775,-0.054268386,0.0055028563,0.23871022,-0.098802246,0.23109788,-0.39352173,-0.06352684,-0.12968452,0.043959383,0.069252595,-0.045544382,-0.16884685,0.16751835,-0.36266133,0.05252452,-0.040126853,0.12483259,-0.07939926,-0.24247877,0.29828772,-0.10683608,-0.032845173,0.26314557,0.110895656,0.035495482,-0.016044606,-0.12752509,-0.307751,0.41530907,0.09196358,0.028865207,0.12696283,0.012345828,0.3348731,0.10249635,-0.39946824,0.14746936,-0.1562102,0.08153822,-0.13226292,0.117023416,-0.021776779,0.22628513,0.3333724,0.028257815,-0.14395837,-0.0007286165,0.030581346,-0.40744498,0.11055194,0.089225575,0.020163132,0.19655614,0.19378059,0.102093205,0.13480642,-0.35913622,0.10732086,0.06858914,0.345838,0.35728332,0.47911036,0.19153,0.051931642,0.008693209,-0.23993586,-0.09653391,-0.1944699,0.066398725,-0.19036195,-0.2952049,0.17056836,-0.044825736,0.54850286,-0.270863,-0.037844006,-0.68069977,0.020779762,-0.31702784,0.08694219,0.019317795,0.39833257,0.34732836,-0.013943462,0.026756505,0.027685242,-0.05629428,-0.3670349,0.105117425,0.13969506,-0.41210207,0.8456574,-0.07288995,-0.09969704,0.43593788,-0.17802264,0.110360086,0.1157209,-0.0380597,0.0883267,-0.10084646,0.16198285,0.0962052,0.15876965,-0.08704713,-0.09935742,0.054947402,-0.09829766,0.07411725,-0.03904842,-0.055208217,-0.011504712,0.25107765,0.1777133,0.15290263,0.15789704,-0.07669771,-0.02331539,0.15354997,0.03144205,0.075810105,0.18325554,0.027372636,0.16158359,-0.54277104,0.040503345,0.039928477,0.021283554,0.0011039567,0.009060207,0.16612042,-0.07534723,0.05633633,-0.1615395,0.20488125,-0.0053306185,-0.33047152,0.119216844,0.10462274,-0.45106545,-0.98001075,-0.29704642,-0.13480842,0.8448975,0.45654643,0.06343215,0.033296198,-0.16330522,0.041387074,-0.07903862,0.13096929,0.098136805,-0.060620323,-0.21279906,0.3030181,-0.058884747,-0.085667826,-0.123858795,-0.15822038,0.0896892,0.1565465,0.08008396,-0.04456288,0.24722043,0.15268964,0.06838436,0.06735858,-0.095470384,-0.33640984,0.0039066025,0.36544678,-0.26989853,0.3512144,-0.08500044,0.15210189,0.20689622,0.24769364,-2.2769,-0.17385851,0.111093976,-0.06926604,-0.08427351,0.25976172,0.30500346,0.12411515,-0.03521795,-0.14889702,-0.06202818,-0.099846356,0.2813934,-0.27194926,-0.2285056,0.039736312,-0.05988097,0.35849154,0.032180514,0.061475392,-0.070899546,0.056924015,0.10376086,-0.03515083,0.06394363,0.11803046,0.18432477,-0.00661793,-0.22038719,0.016834227,-0.12616433,0.37689304,-0.14141959,0.41057995,-0.17383221,-0.12703961,-0.08911482,0.24638039,-0.81089216,-0.16614294,-0.14970712,0.11241272,-0.049632523,0.05839829,-0.030600924,-0.19471243,0.081913784,0.2985767,-0.067799434,-0.06316748,-0.1827699,-0.4757829,0.32179418,-0.2668241,0.1816321,-0.18695961,0.024226766,-0.042187892,0.043388177,-0.3415384,-0.52050805,0.22694646,0.07413655,-0.316429,-0.036744375,0.062227428,-0.16990952,0.047038797,-0.27745366,0.23415004,-0.00028615078,0.11831606,-0.38642,0.11309416,-0.21206516,0.10709552,-0.05335504,-1.0007277,0.018059298,0.030364798,-0.017992437,-0.09358014,-0.29591548,0.3143648,-0.03543348,0.030444331,0.05569926,-0.27938253,-0.31060755,0.15990458,-0.14745027,-0.20262076,-0.034424,-0.090420894,-0.07961448,-0.14527185,0.12329394,0.1667873,0.027372865,0.18251503,0.43865275,-0.22905056,0.28692895,0.253096,-0.3546595,-0.013380407,0.204043,0.597249,0.035973504,0.18588266,-0.099357836,0.004564838,-0.11150992,-0.090463355,0.26870406,-0.14225508,0.035866953,0.08232118,-0.25924954,-0.16337043,0.12698822,0.36466968,-0.19894208,0.08421135,0.010023134,-0.013345379,0.0089844,-0.13407482,-0.1869782,0.10129145,0.09755477,-0.21983726,-0.022595428,0.040770024,-0.28380427,0.12600195,0.028442206,0.05988754,-0.16114803,-0.33918697,0.17655088,0.14699014,0.12200357,-0.024040364,-0.07018423,0.13722277,-0.021239245,0.00058099173,-0.12146471,0.019686848,-0.14321959,0.25038642,0.08645153,-0.2279643,0.2129217,-0.22687174,-0.11488692,0.04818433,0.0072285803,0.37449387,-0.01107972,-0.23251441,-0.04696177,0.0056658913,-0.60609955,-0.09631474,-0.005468999,0.04518584,-0.214586,0.20630687,0.23605718,0.22919086,0.27288428,0.29976198,-0.08961123,0.17277998,0.021778168,0.05365965,-0.032021813,-0.15205303,-0.28753847,-0.2259747,-0.083653115,-0.07404384,0.25156122,0.057604373,-0.21862262
belly_pain/643D64AD-B711-469A-AF69-55C0D5D3E30F-1430138514-1.0-m-72-bp.wav,0.09532957,-0.1264181,0.29229107,0.052903544,-0.31815693,-0.2099642,0.4555415,-0.21488458,-0.30031815,0.09300475,0.31729344,-0.34053487,-0.3169358,0.1589172,0.13374282,-0.22875358,0.011667767,-0.16544184,0.08725814,-0.0846978,-0.16081281,-0.027898982,-0.4874393,0.07526858,0.23528248,-0.06035423,-0.2555644,0.022916868,-0.43027043,-0.047806766,-0.20348312,0.1255324,-0.03206509,0.08737805,0.13248219,0.2937576,-0.00083858776,0.09203235,-0.086163856,-0.3591995,-0.24242088,0.0007025767,-0.27390853,0.13200071,-0.08289186,-0.17733188,0.007604032,0.04031785,0.19101243,-0.16097988,0.016354611,-0.00037310983,-0.1730911,-0.17547601,0.43449038,0.002925998,0.19453666,-0.113514446,0.10817498,-0.040476654,-0.083292075,0.1568111,0.14940044,0.10893572,0.050161503,0.0017646368,-0.048400115,-0.0027942494,0.03845004,0.16029109,0.20219624,0.14591134,0.2551543,0.29759443,0.13115494,0.11281829,0.12394911,-0.17498825,-0.08239465,0.0012220603,0.034773,0.7828275,0.014772275,-0.30921414,-0.11543368,0.27930504,0.096234076,-0.1902388,-0.1485538,0.06336114,-0.60027623,-0.27247873,0.10585693,-0.13005985,-0.34618038,0.043446906,-0.29636848,0.15485847,0.110841125,0.14511943,-0.110106625,-0.36484474,-0.14787853,0.1117343,0.03279433,-0.2866663,0.019164894,0.04524167,-0.026879461,-0.16437916,-0.25536165,0.06496831,0.19940719,-0.07222279,0.07803083,0.097594865,0.015324004,-0.047849283,0.049073428,-0.06422904,-0.33763015,0.15680553,0.14280374,-0.23014672,-0.28435683,0.4299086,-0.15775332,0.15910235,-0.096953884,0.0071795234,0.08824531,-0.35044777,-0.21982513,0.3238936,-0.16933848,0.2621752,-0.002646258,0.0864447,0.23620333,0.091692075,0.08565971,0.20802838,-0.19464979,0.048711143,0.12698048,-0.02030049,-0.7074029,-0.2610901,0.046002783,-0.10818298,-0.0467202,0.047783006,0.13005942,1.2315111,0.026161807,-0.021116313,-0.004124714,-0.41633856,-0.27879396,0.041655075,-0.057523623,0.0865011,0.03550561,0.053232044,0.18148457,-0.097909704,0.40498307,-0.06801733,-0.107119344,-0.4608231,-0.10891971,-0.45122036,0.22958888,0.15975334,-0.06974285,0.3555703,-0.14269078,0.0036916374,0.34776098,-0.16298784,-0.22455165,0.1935633,-0.112243704,0.18031341,-0.36019936,0.04579347,0.023550086,0.23256205,0.017278193,0.1362405,-0.380944,-0.0008119098,0.032014184,0.17780435,0.06833675,0.20993434,0.16364582,-0.27224892,-0.16619302,0.0256298,-0.016041577,-0.0693394,-0.40419757,0.8986623,0.1909008,-0.28345537,0.16044606,0.1482837,-0.11242314,0.08188499,0.18579543,-0.38570392,0.08206441,0.16876867,0.15078035,-0.14349595,-0.16945875,0.04515254,-0.050067235,0.10028504,0.104500234,-0.21451116,-0.05909683,-0.0051657176,0.106893905,0.4610096,0.06529161,0.003065135,-0.10573659,-0.040194333,-0.05737801,-0.11818356,-0.09338941,-0.08114301,0.011243819,0.039786838,0.012742156,-0.117507845,0.12717548,0.13401665,0.14466183,1.5176016,0.23963803,0.09220931,0.033741944,0.06267721,-0.074997835,-0.004772479,0.041237786,-0.017736109,-0.0031510831,0.05595445,0.14176269,0.22250862,-0.11497456,-0.19385426,0.0048408783,-0.22243604,0.105280526,-0.80928624,-0.24038382,-0.26954222,-0.031197254,0.0070539885,-1.0351754,0.035316534,0.04539329,0.1205003,0.3835368,-0.20284472,-0.0016229958,0.10521625,-0.16998905,-0.011139794,-0.20660488,0.029375866,-0.14172877,0.14297727,0.08404649,0.18681353,0.064972445,0.19924411,-0.14557289,0.09808616,-0.1319578,-0.1395608,0.71788573,0.05847897,0.13064814,0.01970071,-0.48483378,0.00077824254,-0.054156914,0.3286706,-0.30301932,0.06303518,-0.017818082,-0.25701836,0.021049958,-0.0838223,-0.19810452,-0.8699882,-0.14861895,0.51960117,0.23121329,-0.037280876,0.080531456,0.17633185,-0.16845125,-0.13814984,0.16053323,0.36774278,-0.25313097,0.08109041,-0.37467542,0.25398135,0.07445267,-0.13775067,0.023092158,0.087617874,-0.038755856,-0.07739043,-0.0669694,0.36780798,0.12614976,-0.19274499,0.41752028,-0.17526546,0.01825057,-0.054854598,0.024937581,-0.14319433,0.09321054,-0.10279517,0.1769509,-0.1567143,0.13495046,0.039405398,0.037880216,0.009254603,0.025261223,0.4302992,0.24401303,0.12019626,-0.41609788,-0.011824368,-0.2979008,-0.10169075,0.4249026,0.033111382,-0.046953354,-0.023192665,0.79586756,-0.15801208,0.19899647,0.3936878,-0.08539279,0.052002806,0.013817463,0.25509128,-0.10981702,0.36037087,0.16412169,-0.030185098,-0.13227625,-0.77532136,-0.076547064,-0.21506499,0.09107664,0.0009503167,0.1415259,-0.16516934,-0.12136361,-0.062792264,-0.26977256,-0.29866105,-0.1284879,-0.032313623,-0.10459854,-0.039713793,0.004203812,-0.091123305,0.055218622,-0.009315309,0.21076843,-0.1405007,-0.33820394,0.20715588,-0.11858181,-0.12774824,0.014858444,0.33367598,0.1023931,-0.077035666,-0.49761504,0.90936506,0.050532755,0.20305161,0.050368797,0.05604062,0.028971316,0.328166,0.059658322,-0.16006094,-0.03853772,-0.13679291,0.16989659,0.0401799,0.22701183,-0.33771667,0.10089801,-0.050861035,0.020698229,0.07999773,0.07935082,-0.19586068,0.10936042,-0.3127152,0.059359334,-0.06219409,0.06796921,-0.21528631,-0.14022669,0.26726323,-0.08648847,-0.021517986,0.12890024,0.0008636916,-0.08761499,0.12496438,-0.15986839,-0.111769125,0.47629854,0.06514863,0.13780059,0.028578151,-0.01054328,0.1497528,-8.9047884e-05,-0.2325239,0.07576213,-0.09660135,0.052565765,-0.09132267,0.14772187,-0.008421304,0.2863048,0.22106352,0.11523243,-0.09727875,0.14448334,-0.09756399,-0.6896605,0.1578993,0.07042974,0.00901096,0.27628422,0.09129413,0.0069960086,0.022630822,-0.28708473,0.15795046,0.008834057,0.5122745,0.22890277,0.24050337,0.13298509,0.22976983,0.08998029,-0.25646845,-0.11851817,0.15275572,-0.013117717,-0.10700731,-0.22185494,0.13822888,0.0029153097,0.56594074,-0.13158323,0.12870975,-0.668058,0.03495382,-0.24724433,0.27055213,0.014071775,0.37673184,0.056870054,-0.10365069,-0.045298364,-0.06485832,0.013535373,-0.39742884,0.057685737,0.12786284,-0.07945603,0.76677,-0.12219348,-0.0983017,0.36996862,-0.12877956,0.13076986,0.06374522,0.0389132,0.13123865,-0.13502525,0.102255866,0.15536325,0.0558328,-0.05728759,-0.084624365,-0.09641769,-0.14319764,0.108137056,0.1413412,-0.15136886,-0.017905286,0.2657132,0.08922258,-0.056761593,0.20318636,-0.098354824,-0.008077398,0.13583188,-0.0007112475,-0.006672942,0.19744498,-0.070282355,0.123276204,-0.64993745,0.08911918,-0.049014464,-0.01764018,-0.06410452,0.099585414,0.02729444,-0.039040677,0.11753826,-0.1910691,0.1840187,0.02675094,-0.30910525,0.13435447,0.0709387,-0.50367576,-1.4037508,-0.2976992,-0.0438742,0.8538949,0.44203034,0.056624535,-0.10306512,-0.302538,-0.04049899,-0.1943216,0.2188344,0.30602294,-0.038029317,-0.24149258,0.29713243,-0.029647173,-0.10039396,-0.013349623,-0.19040646,-0.046204366,-0.0017474736,0.034087546,-0.055205617,0.124940306,0.116118,0.04251172,0.21376626,0.0062944996,-0.109615155,-0.06842553,0.27409202,-0.1495689,0.4262119,-0.044263855,0.3422317,0.17985936,0.11745418,-1.9089531,-0.1671716,0.022979964,-0.20839866,-0.11167685,0.10572814,0.11135894,0.15051505,-0.048586305,-0.09041978,-0.049879838,0.01891783,0.39061692,-0.23598957,-0.27494898,0.093715616,-0.17298608,0.23997426,0.050341733,0.068441115,0.000120420234,0.06516378,0.13230866,-0.20206523,0.0107567385,0.13610472,0.15283583,-0.094765715,-0.25771648,-0.0132001275,-0.32476923,0.20536368,-0.111583866,0.40284225,-0.106006674,-0.13641977,-0.037028518,0.17136921,-0.8591389,-0.21352518,-0.15227872,0.015915073,-0.10166034,-0.05492617,-0.014725981,-0.05327832,0.2125022,0.54533213,-0.116363406,-0.05284904,-0.10210268,-0.21889712,0.24395233,-0.2747465,0.13968268,-0.19112673,0.0065697264,-0.24976023,0.053165104,-0.22382027,-0.5438604,0.11450628,-0.03462489,-0.26399425,0.045327187,0.19760464,-0.29063776,0.019897593,-0.24665417,0.13367546,0.12765682,0.09330775,-0.13552669,0.10235257,-0.022244362,-0.01134684,-0.09150203,-1.0252254,0.063631274,-0.16299129,0.14687677,-0.035166714,-0.23290935,0.24878055,-0.094593234,0.11138673,0.043272328,-0.26033458,-0.2602589,0.11648932,-0.16428299,-0.19852704,0.03227382,-0.09236454,-0.10143943,-0.12112754,0.16545631,0.16735333,0.09581483,0.14365377,0.3517303,-0.27149534,0.29050642,0.21136615,-0.24499148,-0.13564076,0.30302882,0.6304719,0.06237781,0.13841607,0.036123876,0.01610632,-0.116202824,-0.10179042,0.2878416,-0.07531583,0.00089042995,0.0848566,-0.21010299,-0.24984437,0.040493984,0.39341748,-0.12899622,-0.011512812,0.06464382,-0.002864659,-0.07567991,-0.06991625,-0.26058865,0.11764947,0.048783224,-0.15447007,-0.036427755,0.019042738,-0.34727046,0.05914311,-0.0118248835,0.070332706,-0.07560369,-0.26845244,0.22562553,0.09182674,0.07916731,0.04037959,-0.073021315,0.123715855,0.02065432,0.11676454,-0.14333288,-0.0130822705,0.11645398,0.2634529,0.11099149,-0.27259535,0.13159643,-0.054954927,-0.09820275,0.09733938,-0.017442573,0.3415347,-0.11329277,-0.20610279,-0.06745603,-0.055203155,-0.6610727,-0.053084143,-0.044589803,0.106875956,-0.32065028,0.34273854,0.19484754,0.30788597,-0.0299578,0.29712424,-0.16232881,0.23202893,-0.03347564,0.054688167,0.0059677544,-0.26408496,-0.309209,-0.21153001,-0.059207458,-0.00035744623,0.122898914,0.07143816,-0.035562992
belly_pain/C421C6FE-DFEE-4080-8AEA-848E7CE4756B-1430548333-1.0-f-26-bp.wav,-0.0850296,-0.14001495,0.25401583,0.18082759,-0.11171786,-0.13733393,0.24741851,-0.20001505,-0.051504686,-0.049450833,0.11428479,-0.31061146,-0.41781795,0.08238098,-0.15918316,-0.12307948,0.10361931,-0.047543004,-0.06893548,-0.121147804,-0.34374613,-0.12618116,-0.7407634,0.23244916,0.12394946,0.020860815,-0.013115812,0.099284194,-0.08667232,-0.099083595,-0.19732927,-0.029542895,0.041256566,0.06607954,0.23179904,0.26666373,-0.12863487,0.12524457,-0.01918367,-0.3423891,-0.1388618,0.37050587,-0.24829772,-0.14327744,-0.10633907,-0.17296177,-0.004514908,-0.0056423442,0.13234115,-0.17732652,-0.05006577,-0.009245478,0.10301712,-0.113001764,0.25648934,-0.051441718,0.16576271,-0.25605884,0.22767535,-0.13141933,-0.16587408,0.026831917,0.00091679493,0.05146914,-0.1569875,0.2051707,-0.03815602,-0.09117351,-0.07531163,0.13117512,0.15116046,0.12778908,0.12764564,0.13844033,0.24498378,0.03082201,-0.06524697,0.014930403,-0.054185834,-0.038150992,0.024390122,0.5180645,0.23322245,-0.09516977,-0.14813852,0.15687113,0.0038197231,-0.04456289,-0.16619383,-0.02125772,-0.18418622,-0.074646786,0.04103854,-0.10441517,-0.18069506,0.15111457,-1.1366917,0.073818244,0.29020223,0.0975578,-0.287982,-0.29652938,0.07236859,0.24074422,-0.010552131,-0.21364003,-0.01072612,0.08751915,-0.06530576,-0.13012052,-0.18192568,0.050046172,0.1468243,-0.007840806,0.0818542,-0.15609829,-0.071238644,0.058756415,0.098580934,-0.06014701,-0.24777782,0.08421247,0.25754002,-0.1525456,-0.10598844,0.58483076,-0.20525655,0.026815988,0.2104589,0.13344137,0.25357231,-0.017198216,-0.45237628,0.06690652,-0.045479145,0.06681935,-0.36169168,0.0689237,0.34141585,-0.0036767398,0.050968833,0.028860625,-0.15315732,-0.16955024,0.1559275,-0.09167371,-0.9693467,-0.45149243,0.014012296,-0.015085273,0.17707673,0.24553825,0.29008028,1.3868849,-0.035068527,-0.17510016,0.014627226,-0.304316,-0.05046237,-0.022601284,0.0433612,0.2011094,-0.052461777,-0.014711669,0.13685097,-0.054934885,0.25784594,0.0017230989,-0.008113176,-0.06380594,-0.20914589,-0.11473495,0.2607629,0.053425293,-0.06439223,0.50196135,0.09299766,0.094253324,0.098576784,-0.06999941,-0.36333558,0.17098095,-0.19703172,0.08516576,-0.5051711,0.063126706,0.2044418,-0.11924373,-0.058510438,0.37042066,0.09569682,-0.096359864,-0.020722365,0.21211256,-0.005185551,0.10834145,0.083085656,-0.040426865,-0.10104251,-0.05959113,0.10352609,-0.14322858,-0.35205543,0.59439456,0.15565555,-0.05790101,0.1292582,0.01381343,-0.12551202,0.05831991,-0.14069754,-0.2761883,0.0971759,-0.11924517,-0.1207982,-0.034788657,0.071192876,0.011100631,-0.0380433,0.093230546,0.16955256,-0.21094297,-0.061064683,0.04630962,0.09179564,0.16874911,0.1319158,-0.06706536,-0.052137397,0.06674179,0.040791433,0.06254874,-0.079658106,0.007631394,0.13435625,0.18612649,-0.016192835,-0.080672234,0.05909858,0.079988204,0.18294007,1.0231928,0.32878155,0.0633411,0.19929892,0.027944185,0.0055897115,0.05271379,0.065879405,-0.075979665,0.03913569,-0.024816778,0.14393452,0.16419385,-0.08208777,0.1777397,-0.004800538,-0.34085423,-0.039254878,-0.36434966,0.016089223,-0.2337939,0.12872879,-0.040166527,-1.1296722,0.15003641,-0.04971157,0.06232618,0.21201071,-0.02079809,0.15404277,0.12110433,-0.06997133,0.030710736,-0.23576762,0.11374714,0.008973609,0.028391676,0.11986087,0.19703469,0.06672276,0.24962598,-0.1235722,0.25919077,-0.100268714,-0.14770131,0.8974287,0.04061695,0.14089993,-0.055756636,-0.27355048,0.10172298,-0.083371274,0.0886891,-0.5434115,0.055896632,-0.021769516,-0.17445351,0.077388525,0.052601177,-0.13372043,-1.2847716,-0.25678325,-0.014960404,0.108259395,0.015406111,-0.008969006,0.16672006,-0.00071044767,-0.17252523,0.18058,0.34501195,0.044051595,-0.044722736,-0.09181977,0.08814419,0.023004835,0.02668402,0.0070290095,0.12307238,0.18129385,-0.04201282,-0.11421175,0.042117115,0.13843013,-0.19890977,0.26444495,-0.17826077,0.090364195,-0.058624323,-0.057910267,0.36232308,-0.027633639,-0.011515429,-0.104039855,-0.42340407,0.026230285,0.03989006,0.037075125,0.022342777,0.05037288,0.36151698,0.24990681,-0.07914917,-0.39990133,-0.11880244,-0.026857492,-0.03335014,0.35462117,0.1097156,-0.11114649,-0.0679839,-0.395291,-0.15663484,0.15070318,0.29697126,-0.028856741,-0.05375031,0.07731733,0.09950135,0.19410113,0.22663024,0.28379628,-0.17473136,-0.06293058,-1.1256634,-0.20673843,-0.24135017,0.27350506,-0.08836668,0.17240244,-0.10971802,0.010929774,0.011487095,-0.10189674,-0.16154774,-0.008515049,0.01710712,-0.15660334,-0.22941332,0.0014397425,-0.11793677,-0.034999225,0.14228188,-0.12765181,0.02208748,-0.2711582,0.3004731,-0.14346103,0.06422684,0.10974021,0.20206134,0.08864061,-0.16392897,-0.47217596,0.7338023,0.0054403385,0.45058542,0.20477623,-0.0153895505,-0.080609515,0.10749089,0.10983064,0.034781504,-0.07773478,-0.08588086,0.022215204,0.15764669,0.19907351,-0.29497793,-0.2519101,0.046553783,-0.015934724,0.03265353,-0.016051212,-0.108986035,0.06660372,-0.36337954,-0.020905755,-0.013981916,0.12458152,-0.1518037,-0.24998342,0.04501255,0.0364103,-0.12467505,0.14984633,-0.119473256,0.02804922,0.4041752,-0.072963566,-0.02143659,0.57184166,0.03765698,0.095283315,-0.29024634,0.20800304,0.23084076,0.17905667,-0.5419547,-0.33805442,0.007999673,0.0018343786,0.011839624,0.16347894,-0.0748842,0.39927047,0.18864754,-0.03303209,-0.045194503,-0.016019095,0.15437578,-0.12994914,-0.03223667,0.001127803,0.009566945,0.032020245,0.07087019,0.1239566,0.12551914,-0.20634069,0.06507938,-0.01093732,0.3893574,0.3874395,0.04599262,0.26803976,-0.0050566755,-0.09613383,0.10113145,-0.027407326,0.16138251,0.038345065,0.11827445,0.20294823,0.11657979,-0.028092595,0.27232894,-0.23139893,0.116690814,-0.7209912,-0.025932603,-0.16592737,-0.21248364,0.004084598,0.32795307,0.30102327,-0.32133797,0.107828505,0.052001875,0.04953271,-0.40455976,-0.009752605,-0.012125705,-0.3884844,0.83392394,0.045573745,-0.21803483,0.21662027,-0.09853269,-0.013855466,0.09174649,0.123281375,0.02147801,-0.12329919,0.10552587,0.31428924,0.017593432,-0.030611612,-0.06902555,-0.04145366,-0.10810931,0.056210358,0.13479283,0.0042094383,-0.06843145,0.31676129,-0.033462826,0.102392085,0.11644625,-0.02652669,0.12492778,0.11152129,0.06693376,-0.10952908,0.19160739,-0.058629695,0.14880733,-0.56758064,0.1675157,0.059132945,-0.13962872,0.04651861,0.12185672,0.16300635,-0.12537484,0.12130206,-0.06162504,0.06348779,0.06755399,-0.28006414,-0.07913461,0.1569065,-0.57522506,-0.77423453,-0.29634658,-0.011584732,0.89167905,0.089153096,0.008194869,0.14773925,-0.16006295,0.098391786,0.004620109,0.2092024,0.13219722,-0.014017201,-0.23645604,0.30230907,0.007688161,-0.09914701,-0.30789432,-0.1326445,-0.08788816,-0.07704045,0.19746622,0.30411676,0.27744362,0.16870068,-0.0037894,0.085139364,-0.20734268,-0.0707552,-0.052880496,0.51925385,-0.109945655,0.07926588,0.32645798,0.11921553,0.0257547,0.0042468277,-2.0252638,-0.25140107,-0.036939878,0.14358784,0.05252258,0.0888083,0.33987886,0.115641475,-0.0038751033,-0.08195525,0.12635675,0.18360895,0.17071262,-0.24567203,0.012966259,0.03837261,-0.07173155,0.11701386,-0.08413079,-0.02850636,-0.042298585,0.041627612,0.22589442,0.026881052,0.070769094,-0.05207464,0.45380464,-0.03451777,-0.43221524,-0.12561858,-0.15438022,0.49407452,0.047051083,0.61425334,-0.30716276,-0.20016676,-0.018854624,0.13208152,-0.87001723,-0.28881642,-0.09946788,0.04274219,0.0851517,0.011630667,-0.059053324,-0.0414081,-0.033019524,0.3545426,-0.15497541,0.023814254,-0.16543017,-0.20343284,0.32157764,-0.19830763,0.099323034,-0.016353035,-0.17081219,-0.31346247,-0.023358118,-0.34546617,-0.3897606,0.3740301,0.03823288,-0.20581897,0.013068967,0.11126803,-0.3462367,0.15443386,-0.20522474,0.04030389,-0.15331253,0.07695475,-0.24683058,0.18864009,-0.16201702,0.16292416,-0.36192158,-0.7524003,0.17574823,0.07288581,0.0007639657,-0.11806629,-0.16210686,0.13781728,-0.11617082,0.03674576,0.09752358,-0.19232272,-0.20310107,0.15957725,0.03659814,-0.2272066,-0.1173079,-0.11649693,-0.05861156,-0.17786705,0.30181786,0.24010491,-0.053490832,0.07863643,0.2157875,-0.10026278,0.31184548,0.0950451,-0.35253775,-0.46398842,0.28651866,-0.40748453,0.028627845,0.10326551,0.052392155,0.019699553,-0.12472827,-0.10894909,0.16213301,0.23833907,0.04750706,-0.0073959846,0.100379504,-0.045865722,0.03838111,0.39347425,-0.28914186,0.13554077,0.03434847,0.017798888,-0.0037377225,-0.10112661,0.30033576,-0.14931856,0.08231702,-0.12302673,-0.050487686,-0.05859514,-0.20267263,0.07825251,0.03204023,0.2568993,-0.1714922,-0.0621543,0.13609664,0.14142473,0.051068135,0.12412676,0.14375521,0.17212138,-0.102115,0.12017455,-0.09004123,0.030098502,-0.25727725,0.056361727,0.13139349,-0.28434947,0.10494722,-0.08773,-0.02239768,0.07136353,-0.067253284,0.1981201,-0.04764249,-0.078287125,-0.030679597,0.19969267,-0.46656516,-0.11107932,-0.24025786,0.025203902,-0.1992675,0.107374765,0.12022514,0.12957376,0.13238129,0.23872344,-0.052828945,0.17155287,-0.015143749,-0.049553037,0.1438386,-0.25791624,-0.15051265,-0.42211384,-0.027799962,-0.08832266,0.2925312,0.17509188,0.085864685
